digraph Tree {
node [shape=box, style="filled", color="black"] ;
0 [label="survive_time <= 937.793\ngini = 0.718\nsamples = 106696\nvalue = [16528, 26907, 41951, 21310]\nclass = 2", fillcolor="#399de530"] ;
1 [label="travel_ratio <= 0.688\ngini = 0.265\nsamples = 48138\nvalue = [6819, 2, 40711, 606]\nclass = 2", fillcolor="#399de5d1"] ;
0 -> 1 [labeldistance=2.5, labelangle=45, headlabel="True"] ;
2 [label="distance_rode <= 535.145\ngini = 0.093\nsamples = 7030\nvalue = [6685, 2, 333, 10]\nclass = 0", fillcolor="#e58139f2"] ;
1 -> 2 ;
3 [label="travel_ratio <= 0.565\ngini = 0.499\nsamples = 533\nvalue = [276, 0, 257, 0]\nclass = 0", fillcolor="#e5813912"] ;
2 -> 3 ;
4 [label="travel_ratio <= 0.489\ngini = 0.285\nsamples = 227\nvalue = [188, 0, 39, 0]\nclass = 0", fillcolor="#e58139ca"] ;
3 -> 4 ;
5 [label="team_placement <= 26.5\ngini = 0.082\nsamples = 140\nvalue = [134, 0, 6, 0]\nclass = 0", fillcolor="#e58139f4"] ;
4 -> 5 ;
6 [label="distance_walked <= 450.799\ngini = 0.031\nsamples = 128\nvalue = [126, 0, 2, 0]\nclass = 0", fillcolor="#e58139fb"] ;
5 -> 6 ;
7 [label="Shotgun <= 0.5\ngini = 0.016\nsamples = 124\nvalue = [123, 0, 1, 0]\nclass = 0", fillcolor="#e58139fd"] ;
6 -> 7 ;
8 [label="gini = 0.0\nsamples = 107\nvalue = [107, 0, 0, 0]\nclass = 0", fillcolor="#e58139ff"] ;
7 -> 8 ;
9 [label="team_placement <= 24.5\ngini = 0.111\nsamples = 17\nvalue = [16, 0, 1, 0]\nclass = 0", fillcolor="#e58139ef"] ;
7 -> 9 ;
10 [label="gini = 0.0\nsamples = 16\nvalue = [16, 0, 0, 0]\nclass = 0", fillcolor="#e58139ff"] ;
9 -> 10 ;
11 [label="gini = 0.0\nsamples = 1\nvalue = [0, 0, 1, 0]\nclass = 2", fillcolor="#399de5ff"] ;
9 -> 11 ;
12 [label="distance_walked <= 453.064\ngini = 0.375\nsamples = 4\nvalue = [3, 0, 1, 0]\nclass = 0", fillcolor="#e58139aa"] ;
6 -> 12 ;
13 [label="gini = 0.0\nsamples = 1\nvalue = [0, 0, 1, 0]\nclass = 2", fillcolor="#399de5ff"] ;
12 -> 13 ;
14 [label="gini = 0.0\nsamples = 3\nvalue = [3, 0, 0, 0]\nclass = 0", fillcolor="#e58139ff"] ;
12 -> 14 ;
15 [label="travel_ratio <= 0.385\ngini = 0.444\nsamples = 12\nvalue = [8, 0, 4, 0]\nclass = 0", fillcolor="#e581397f"] ;
5 -> 15 ;
16 [label="gini = 0.0\nsamples = 8\nvalue = [8, 0, 0, 0]\nclass = 0", fillcolor="#e58139ff"] ;
15 -> 16 ;
17 [label="gini = 0.0\nsamples = 4\nvalue = [0, 0, 4, 0]\nclass = 2", fillcolor="#399de5ff"] ;
15 -> 17 ;
18 [label="team_placement <= 20.5\ngini = 0.471\nsamples = 87\nvalue = [54, 0, 33, 0]\nclass = 0", fillcolor="#e5813963"] ;
4 -> 18 ;
19 [label="SMG <= 0.5\ngini = 0.111\nsamples = 51\nvalue = [48, 0, 3, 0]\nclass = 0", fillcolor="#e58139ef"] ;
18 -> 19 ;
20 [label="travel_ratio <= 0.563\ngini = 0.041\nsamples = 48\nvalue = [47, 0, 1, 0]\nclass = 0", fillcolor="#e58139fa"] ;
19 -> 20 ;
21 [label="gini = 0.0\nsamples = 46\nvalue = [46, 0, 0, 0]\nclass = 0", fillcolor="#e58139ff"] ;
20 -> 21 ;
22 [label="distance_rode <= 347.048\ngini = 0.5\nsamples = 2\nvalue = [1, 0, 1, 0]\nclass = 0", fillcolor="#e5813900"] ;
20 -> 22 ;
23 [label="gini = 0.0\nsamples = 1\nvalue = [0, 0, 1, 0]\nclass = 2", fillcolor="#399de5ff"] ;
22 -> 23 ;
24 [label="gini = 0.0\nsamples = 1\nvalue = [1, 0, 0, 0]\nclass = 0", fillcolor="#e58139ff"] ;
22 -> 24 ;
25 [label="player_assists <= 0.5\ngini = 0.444\nsamples = 3\nvalue = [1, 0, 2, 0]\nclass = 2", fillcolor="#399de57f"] ;
19 -> 25 ;
26 [label="gini = 0.0\nsamples = 2\nvalue = [0, 0, 2, 0]\nclass = 2", fillcolor="#399de5ff"] ;
25 -> 26 ;
27 [label="gini = 0.0\nsamples = 1\nvalue = [1, 0, 0, 0]\nclass = 0", fillcolor="#e58139ff"] ;
25 -> 27 ;
28 [label="distance_rode <= 490.399\ngini = 0.278\nsamples = 36\nvalue = [6, 0, 30, 0]\nclass = 2", fillcolor="#399de5cc"] ;
18 -> 28 ;
29 [label="Throwable <= 0.5\ngini = 0.165\nsamples = 33\nvalue = [3, 0, 30, 0]\nclass = 2", fillcolor="#399de5e6"] ;
28 -> 29 ;
30 [label="survive_time <= 444.301\ngini = 0.117\nsamples = 32\nvalue = [2, 0, 30, 0]\nclass = 2", fillcolor="#399de5ee"] ;
29 -> 30 ;
31 [label="killed_from <= 279.948\ngini = 0.064\nsamples = 30\nvalue = [1, 0, 29, 0]\nclass = 2", fillcolor="#399de5f6"] ;
30 -> 31 ;
32 [label="killed_from <= 237.699\ngini = 0.375\nsamples = 4\nvalue = [1, 0, 3, 0]\nclass = 2", fillcolor="#399de5aa"] ;
31 -> 32 ;
33 [label="gini = 0.0\nsamples = 3\nvalue = [0, 0, 3, 0]\nclass = 2", fillcolor="#399de5ff"] ;
32 -> 33 ;
34 [label="gini = 0.0\nsamples = 1\nvalue = [1, 0, 0, 0]\nclass = 0", fillcolor="#e58139ff"] ;
32 -> 34 ;
35 [label="gini = 0.0\nsamples = 26\nvalue = [0, 0, 26, 0]\nclass = 2", fillcolor="#399de5ff"] ;
31 -> 35 ;
36 [label="distance_walked <= 406.837\ngini = 0.5\nsamples = 2\nvalue = [1, 0, 1, 0]\nclass = 0", fillcolor="#e5813900"] ;
30 -> 36 ;
37 [label="gini = 0.0\nsamples = 1\nvalue = [0, 0, 1, 0]\nclass = 2", fillcolor="#399de5ff"] ;
36 -> 37 ;
38 [label="gini = 0.0\nsamples = 1\nvalue = [1, 0, 0, 0]\nclass = 0", fillcolor="#e58139ff"] ;
36 -> 38 ;
39 [label="gini = 0.0\nsamples = 1\nvalue = [1, 0, 0, 0]\nclass = 0", fillcolor="#e58139ff"] ;
29 -> 39 ;
40 [label="gini = 0.0\nsamples = 3\nvalue = [3, 0, 0, 0]\nclass = 0", fillcolor="#e58139ff"] ;
28 -> 40 ;
41 [label="team_placement <= 15.5\ngini = 0.41\nsamples = 306\nvalue = [88, 0, 218, 0]\nclass = 2", fillcolor="#399de598"] ;
3 -> 41 ;
42 [label="distance_rode <= 279.72\ngini = 0.355\nsamples = 91\nvalue = [70, 0, 21, 0]\nclass = 0", fillcolor="#e58139b3"] ;
41 -> 42 ;
43 [label="team_placement <= 6.0\ngini = 0.375\nsamples = 16\nvalue = [4, 0, 12, 0]\nclass = 2", fillcolor="#399de5aa"] ;
42 -> 43 ;
44 [label="gini = 0.0\nsamples = 4\nvalue = [4, 0, 0, 0]\nclass = 0", fillcolor="#e58139ff"] ;
43 -> 44 ;
45 [label="gini = 0.0\nsamples = 12\nvalue = [0, 0, 12, 0]\nclass = 2", fillcolor="#399de5ff"] ;
43 -> 45 ;
46 [label="team_placement <= 13.5\ngini = 0.211\nsamples = 75\nvalue = [66, 0, 9, 0]\nclass = 0", fillcolor="#e58139dc"] ;
42 -> 46 ;
47 [label="survive_time <= 281.9\ngini = 0.077\nsamples = 50\nvalue = [48, 0, 2, 0]\nclass = 0", fillcolor="#e58139f4"] ;
46 -> 47 ;
48 [label="gini = 0.0\nsamples = 1\nvalue = [0, 0, 1, 0]\nclass = 2", fillcolor="#399de5ff"] ;
47 -> 48 ;
49 [label="Melee <= 0.5\ngini = 0.04\nsamples = 49\nvalue = [48, 0, 1, 0]\nclass = 0", fillcolor="#e58139fa"] ;
47 -> 49 ;
50 [label="gini = 0.0\nsamples = 46\nvalue = [46, 0, 0, 0]\nclass = 0", fillcolor="#e58139ff"] ;
49 -> 50 ;
51 [label="kill_knockdown_ratio <= 0.45\ngini = 0.444\nsamples = 3\nvalue = [2, 0, 1, 0]\nclass = 0", fillcolor="#e581397f"] ;
49 -> 51 ;
52 [label="gini = 0.0\nsamples = 1\nvalue = [0, 0, 1, 0]\nclass = 2", fillcolor="#399de5ff"] ;
51 -> 52 ;
53 [label="gini = 0.0\nsamples = 2\nvalue = [2, 0, 0, 0]\nclass = 0", fillcolor="#e58139ff"] ;
51 -> 53 ;
54 [label="survive_time <= 685.045\ngini = 0.403\nsamples = 25\nvalue = [18, 0, 7, 0]\nclass = 0", fillcolor="#e581399c"] ;
46 -> 54 ;
55 [label="travel_ratio <= 0.642\ngini = 0.497\nsamples = 13\nvalue = [6, 0, 7, 0]\nclass = 2", fillcolor="#399de524"] ;
54 -> 55 ;
56 [label="survive_time <= 464.343\ngini = 0.278\nsamples = 6\nvalue = [5, 0, 1, 0]\nclass = 0", fillcolor="#e58139cc"] ;
55 -> 56 ;
57 [label="gini = 0.0\nsamples = 1\nvalue = [0, 0, 1, 0]\nclass = 2", fillcolor="#399de5ff"] ;
56 -> 57 ;
58 [label="gini = 0.0\nsamples = 5\nvalue = [5, 0, 0, 0]\nclass = 0", fillcolor="#e58139ff"] ;
56 -> 58 ;
59 [label="knockdown_count <= 0.5\ngini = 0.245\nsamples = 7\nvalue = [1, 0, 6, 0]\nclass = 2", fillcolor="#399de5d4"] ;
55 -> 59 ;
60 [label="gini = 0.0\nsamples = 1\nvalue = [1, 0, 0, 0]\nclass = 0", fillcolor="#e58139ff"] ;
59 -> 60 ;
61 [label="gini = 0.0\nsamples = 6\nvalue = [0, 0, 6, 0]\nclass = 2", fillcolor="#399de5ff"] ;
59 -> 61 ;
62 [label="gini = 0.0\nsamples = 12\nvalue = [12, 0, 0, 0]\nclass = 0", fillcolor="#e58139ff"] ;
54 -> 62 ;
63 [label="survive_time <= 758.286\ngini = 0.153\nsamples = 215\nvalue = [18, 0, 197, 0]\nclass = 2", fillcolor="#399de5e8"] ;
41 -> 63 ;
64 [label="team_placement <= 17.5\ngini = 0.109\nsamples = 207\nvalue = [12, 0, 195, 0]\nclass = 2", fillcolor="#399de5ef"] ;
63 -> 64 ;
65 [label="travel_ratio <= 0.633\ngini = 0.361\nsamples = 38\nvalue = [9, 0, 29, 0]\nclass = 2", fillcolor="#399de5b0"] ;
64 -> 65 ;
66 [label="survive_time <= 475.688\ngini = 0.48\nsamples = 15\nvalue = [9, 0, 6, 0]\nclass = 0", fillcolor="#e5813955"] ;
65 -> 66 ;
67 [label="gini = 0.0\nsamples = 6\nvalue = [0, 0, 6, 0]\nclass = 2", fillcolor="#399de5ff"] ;
66 -> 67 ;
68 [label="gini = 0.0\nsamples = 9\nvalue = [9, 0, 0, 0]\nclass = 0", fillcolor="#e58139ff"] ;
66 -> 68 ;
69 [label="gini = 0.0\nsamples = 23\nvalue = [0, 0, 23, 0]\nclass = 2", fillcolor="#399de5ff"] ;
65 -> 69 ;
70 [label="survive_time <= 721.866\ngini = 0.035\nsamples = 169\nvalue = [3, 0, 166, 0]\nclass = 2", fillcolor="#399de5fa"] ;
64 -> 70 ;
71 [label="travel_ratio <= 0.591\ngini = 0.024\nsamples = 167\nvalue = [2, 0, 165, 0]\nclass = 2", fillcolor="#399de5fc"] ;
70 -> 71 ;
72 [label="distance_walked <= 677.455\ngini = 0.137\nsamples = 27\nvalue = [2, 0, 25, 0]\nclass = 2", fillcolor="#399de5eb"] ;
71 -> 72 ;
73 [label="gini = 0.0\nsamples = 25\nvalue = [0, 0, 25, 0]\nclass = 2", fillcolor="#399de5ff"] ;
72 -> 73 ;
74 [label="gini = 0.0\nsamples = 2\nvalue = [2, 0, 0, 0]\nclass = 0", fillcolor="#e58139ff"] ;
72 -> 74 ;
75 [label="gini = 0.0\nsamples = 140\nvalue = [0, 0, 140, 0]\nclass = 2", fillcolor="#399de5ff"] ;
71 -> 75 ;
76 [label="killed_from <= 1331.963\ngini = 0.5\nsamples = 2\nvalue = [1, 0, 1, 0]\nclass = 0", fillcolor="#e5813900"] ;
70 -> 76 ;
77 [label="gini = 0.0\nsamples = 1\nvalue = [1, 0, 0, 0]\nclass = 0", fillcolor="#e58139ff"] ;
76 -> 77 ;
78 [label="gini = 0.0\nsamples = 1\nvalue = [0, 0, 1, 0]\nclass = 2", fillcolor="#399de5ff"] ;
76 -> 78 ;
79 [label="player_dmg <= 458.5\ngini = 0.375\nsamples = 8\nvalue = [6, 0, 2, 0]\nclass = 0", fillcolor="#e58139aa"] ;
63 -> 79 ;
80 [label="Pistols and Sidearm <= 0.5\ngini = 0.245\nsamples = 7\nvalue = [6, 0, 1, 0]\nclass = 0", fillcolor="#e58139d4"] ;
79 -> 80 ;
81 [label="gini = 0.0\nsamples = 6\nvalue = [6, 0, 0, 0]\nclass = 0", fillcolor="#e58139ff"] ;
80 -> 81 ;
82 [label="gini = 0.0\nsamples = 1\nvalue = [0, 0, 1, 0]\nclass = 2", fillcolor="#399de5ff"] ;
80 -> 82 ;
83 [label="gini = 0.0\nsamples = 1\nvalue = [0, 0, 1, 0]\nclass = 2", fillcolor="#399de5ff"] ;
79 -> 83 ;
84 [label="distance_rode <= 669.237\ngini = 0.027\nsamples = 6497\nvalue = [6409, 2, 76, 10]\nclass = 0", fillcolor="#e58139fc"] ;
2 -> 84 ;
85 [label="travel_ratio <= 0.549\ngini = 0.268\nsamples = 333\nvalue = [280, 0, 53, 0]\nclass = 0", fillcolor="#e58139cf"] ;
84 -> 85 ;
86 [label="Throwable <= 0.5\ngini = 0.041\nsamples = 142\nvalue = [139, 0, 3, 0]\nclass = 0", fillcolor="#e58139f9"] ;
85 -> 86 ;
87 [label="travel_ratio <= 0.523\ngini = 0.028\nsamples = 140\nvalue = [138, 0, 2, 0]\nclass = 0", fillcolor="#e58139fb"] ;
86 -> 87 ;
88 [label="gini = 0.0\nsamples = 119\nvalue = [119, 0, 0, 0]\nclass = 0", fillcolor="#e58139ff"] ;
87 -> 88 ;
89 [label="travel_ratio <= 0.523\ngini = 0.172\nsamples = 21\nvalue = [19, 0, 2, 0]\nclass = 0", fillcolor="#e58139e4"] ;
87 -> 89 ;
90 [label="gini = 0.0\nsamples = 2\nvalue = [0, 0, 2, 0]\nclass = 2", fillcolor="#399de5ff"] ;
89 -> 90 ;
91 [label="gini = 0.0\nsamples = 19\nvalue = [19, 0, 0, 0]\nclass = 0", fillcolor="#e58139ff"] ;
89 -> 91 ;
92 [label="kill_knockdown_ratio <= 0.833\ngini = 0.5\nsamples = 2\nvalue = [1, 0, 1, 0]\nclass = 0", fillcolor="#e5813900"] ;
86 -> 92 ;
93 [label="gini = 0.0\nsamples = 1\nvalue = [1, 0, 0, 0]\nclass = 0", fillcolor="#e58139ff"] ;
92 -> 93 ;
94 [label="gini = 0.0\nsamples = 1\nvalue = [0, 0, 1, 0]\nclass = 2", fillcolor="#399de5ff"] ;
92 -> 94 ;
95 [label="team_placement <= 18.5\ngini = 0.387\nsamples = 191\nvalue = [141, 0, 50, 0]\nclass = 0", fillcolor="#e58139a5"] ;
85 -> 95 ;
96 [label="travel_ratio <= 0.658\ngini = 0.198\nsamples = 144\nvalue = [128, 0, 16, 0]\nclass = 0", fillcolor="#e58139df"] ;
95 -> 96 ;
97 [label="survive_time <= 456.953\ngini = 0.076\nsamples = 101\nvalue = [97, 0, 4, 0]\nclass = 0", fillcolor="#e58139f4"] ;
96 -> 97 ;
98 [label="distance_walked <= 863.262\ngini = 0.469\nsamples = 8\nvalue = [5, 0, 3, 0]\nclass = 0", fillcolor="#e5813966"] ;
97 -> 98 ;
99 [label="gini = 0.0\nsamples = 5\nvalue = [5, 0, 0, 0]\nclass = 0", fillcolor="#e58139ff"] ;
98 -> 99 ;
100 [label="gini = 0.0\nsamples = 3\nvalue = [0, 0, 3, 0]\nclass = 2", fillcolor="#399de5ff"] ;
98 -> 100 ;
101 [label="player_dmg <= 404.5\ngini = 0.021\nsamples = 93\nvalue = [92, 0, 1, 0]\nclass = 0", fillcolor="#e58139fc"] ;
97 -> 101 ;
102 [label="gini = 0.0\nsamples = 87\nvalue = [87, 0, 0, 0]\nclass = 0", fillcolor="#e58139ff"] ;
101 -> 102 ;
103 [label="knockdown_count <= 2.5\ngini = 0.278\nsamples = 6\nvalue = [5, 0, 1, 0]\nclass = 0", fillcolor="#e58139cc"] ;
101 -> 103 ;
104 [label="gini = 0.0\nsamples = 1\nvalue = [0, 0, 1, 0]\nclass = 2", fillcolor="#399de5ff"] ;
103 -> 104 ;
105 [label="gini = 0.0\nsamples = 5\nvalue = [5, 0, 0, 0]\nclass = 0", fillcolor="#e58139ff"] ;
103 -> 105 ;
106 [label="survive_time <= 730.715\ngini = 0.402\nsamples = 43\nvalue = [31, 0, 12, 0]\nclass = 0", fillcolor="#e581399c"] ;
96 -> 106 ;
107 [label="team_placement <= 14.5\ngini = 0.444\nsamples = 15\nvalue = [5, 0, 10, 0]\nclass = 2", fillcolor="#399de57f"] ;
106 -> 107 ;
108 [label="killed_from <= 3124.58\ngini = 0.278\nsamples = 6\nvalue = [5, 0, 1, 0]\nclass = 0", fillcolor="#e58139cc"] ;
107 -> 108 ;
109 [label="gini = 0.0\nsamples = 5\nvalue = [5, 0, 0, 0]\nclass = 0", fillcolor="#e58139ff"] ;
108 -> 109 ;
110 [label="gini = 0.0\nsamples = 1\nvalue = [0, 0, 1, 0]\nclass = 2", fillcolor="#399de5ff"] ;
108 -> 110 ;
111 [label="gini = 0.0\nsamples = 9\nvalue = [0, 0, 9, 0]\nclass = 2", fillcolor="#399de5ff"] ;
107 -> 111 ;
112 [label="kill_distance <= 173.8\ngini = 0.133\nsamples = 28\nvalue = [26, 0, 2, 0]\nclass = 0", fillcolor="#e58139eb"] ;
106 -> 112 ;
113 [label="gini = 0.0\nsamples = 1\nvalue = [0, 0, 1, 0]\nclass = 2", fillcolor="#399de5ff"] ;
112 -> 113 ;
114 [label="team_placement <= 17.0\ngini = 0.071\nsamples = 27\nvalue = [26, 0, 1, 0]\nclass = 0", fillcolor="#e58139f5"] ;
112 -> 114 ;
115 [label="gini = 0.0\nsamples = 24\nvalue = [24, 0, 0, 0]\nclass = 0", fillcolor="#e58139ff"] ;
114 -> 115 ;
116 [label="Shotgun <= 0.5\ngini = 0.444\nsamples = 3\nvalue = [2, 0, 1, 0]\nclass = 0", fillcolor="#e581397f"] ;
114 -> 116 ;
117 [label="gini = 0.0\nsamples = 2\nvalue = [2, 0, 0, 0]\nclass = 0", fillcolor="#e58139ff"] ;
116 -> 117 ;
118 [label="gini = 0.0\nsamples = 1\nvalue = [0, 0, 1, 0]\nclass = 2", fillcolor="#399de5ff"] ;
116 -> 118 ;
119 [label="kill_knockdown_ratio <= 0.633\ngini = 0.4\nsamples = 47\nvalue = [13, 0, 34, 0]\nclass = 2", fillcolor="#399de59e"] ;
95 -> 119 ;
120 [label="distance_walked <= 769.788\ngini = 0.266\nsamples = 38\nvalue = [6, 0, 32, 0]\nclass = 2", fillcolor="#399de5cf"] ;
119 -> 120 ;
121 [label="survive_time <= 427.459\ngini = 0.49\nsamples = 7\nvalue = [4, 0, 3, 0]\nclass = 0", fillcolor="#e5813940"] ;
120 -> 121 ;
122 [label="gini = 0.0\nsamples = 3\nvalue = [0, 0, 3, 0]\nclass = 2", fillcolor="#399de5ff"] ;
121 -> 122 ;
123 [label="gini = 0.0\nsamples = 4\nvalue = [4, 0, 0, 0]\nclass = 0", fillcolor="#e58139ff"] ;
121 -> 123 ;
124 [label="kill_distance <= 20600.561\ngini = 0.121\nsamples = 31\nvalue = [2, 0, 29, 0]\nclass = 2", fillcolor="#399de5ed"] ;
120 -> 124 ;
125 [label="player_dmg <= 293.5\ngini = 0.064\nsamples = 30\nvalue = [1, 0, 29, 0]\nclass = 2", fillcolor="#399de5f6"] ;
124 -> 125 ;
126 [label="gini = 0.0\nsamples = 28\nvalue = [0, 0, 28, 0]\nclass = 2", fillcolor="#399de5ff"] ;
125 -> 126 ;
127 [label="player_assists <= 0.5\ngini = 0.5\nsamples = 2\nvalue = [1, 0, 1, 0]\nclass = 0", fillcolor="#e5813900"] ;
125 -> 127 ;
128 [label="gini = 0.0\nsamples = 1\nvalue = [1, 0, 0, 0]\nclass = 0", fillcolor="#e58139ff"] ;
127 -> 128 ;
129 [label="gini = 0.0\nsamples = 1\nvalue = [0, 0, 1, 0]\nclass = 2", fillcolor="#399de5ff"] ;
127 -> 129 ;
130 [label="gini = 0.0\nsamples = 1\nvalue = [1, 0, 0, 0]\nclass = 0", fillcolor="#e58139ff"] ;
124 -> 130 ;
131 [label="distance_rode <= 558.972\ngini = 0.346\nsamples = 9\nvalue = [7, 0, 2, 0]\nclass = 0", fillcolor="#e58139b6"] ;
119 -> 131 ;
132 [label="gini = 0.0\nsamples = 2\nvalue = [0, 0, 2, 0]\nclass = 2", fillcolor="#399de5ff"] ;
131 -> 132 ;
133 [label="gini = 0.0\nsamples = 7\nvalue = [7, 0, 0, 0]\nclass = 0", fillcolor="#e58139ff"] ;
131 -> 133 ;
134 [label="travel_ratio <= 0.618\ngini = 0.011\nsamples = 6164\nvalue = [6129, 2, 23, 10]\nclass = 0", fillcolor="#e58139fe"] ;
84 -> 134 ;
135 [label="travel_ratio <= 0.578\ngini = 0.002\nsamples = 5852\nvalue = [5845, 2, 5, 0]\nclass = 0", fillcolor="#e58139ff"] ;
134 -> 135 ;
136 [label="distance_rode <= 7012.24\ngini = 0.001\nsamples = 5611\nvalue = [5609, 2, 0, 0]\nclass = 0", fillcolor="#e58139ff"] ;
135 -> 136 ;
137 [label="player_dmg <= 687.5\ngini = 0.0\nsamples = 5590\nvalue = [5589, 1, 0, 0]\nclass = 0", fillcolor="#e58139ff"] ;
136 -> 137 ;
138 [label="gini = 0.0\nsamples = 5557\nvalue = [5557, 0, 0, 0]\nclass = 0", fillcolor="#e58139ff"] ;
137 -> 138 ;
139 [label="team_placement <= 4.0\ngini = 0.059\nsamples = 33\nvalue = [32, 1, 0, 0]\nclass = 0", fillcolor="#e58139f7"] ;
137 -> 139 ;
140 [label="gini = 0.0\nsamples = 1\nvalue = [0, 1, 0, 0]\nclass = 1", fillcolor="#47e539ff"] ;
139 -> 140 ;
141 [label="gini = 0.0\nsamples = 32\nvalue = [32, 0, 0, 0]\nclass = 0", fillcolor="#e58139ff"] ;
139 -> 141 ;
142 [label="killed_from <= 20051.072\ngini = 0.091\nsamples = 21\nvalue = [20, 1, 0, 0]\nclass = 0", fillcolor="#e58139f2"] ;
136 -> 142 ;
143 [label="gini = 0.0\nsamples = 20\nvalue = [20, 0, 0, 0]\nclass = 0", fillcolor="#e58139ff"] ;
142 -> 143 ;
144 [label="gini = 0.0\nsamples = 1\nvalue = [0, 1, 0, 0]\nclass = 1", fillcolor="#47e539ff"] ;
142 -> 144 ;
145 [label="team_placement <= 21.5\ngini = 0.041\nsamples = 241\nvalue = [236, 0, 5, 0]\nclass = 0", fillcolor="#e58139fa"] ;
135 -> 145 ;
146 [label="survive_time <= 460.449\ngini = 0.017\nsamples = 238\nvalue = [236, 0, 2, 0]\nclass = 0", fillcolor="#e58139fd"] ;
145 -> 146 ;
147 [label="gini = 0.0\nsamples = 1\nvalue = [0, 0, 1, 0]\nclass = 2", fillcolor="#399de5ff"] ;
146 -> 147 ;
148 [label="survive_time <= 615.245\ngini = 0.008\nsamples = 237\nvalue = [236, 0, 1, 0]\nclass = 0", fillcolor="#e58139fe"] ;
146 -> 148 ;
149 [label="survive_time <= 606.999\ngini = 0.124\nsamples = 15\nvalue = [14, 0, 1, 0]\nclass = 0", fillcolor="#e58139ed"] ;
148 -> 149 ;
150 [label="gini = 0.0\nsamples = 14\nvalue = [14, 0, 0, 0]\nclass = 0", fillcolor="#e58139ff"] ;
149 -> 150 ;
151 [label="gini = 0.0\nsamples = 1\nvalue = [0, 0, 1, 0]\nclass = 2", fillcolor="#399de5ff"] ;
149 -> 151 ;
152 [label="gini = 0.0\nsamples = 222\nvalue = [222, 0, 0, 0]\nclass = 0", fillcolor="#e58139ff"] ;
148 -> 152 ;
153 [label="gini = 0.0\nsamples = 3\nvalue = [0, 0, 3, 0]\nclass = 2", fillcolor="#399de5ff"] ;
145 -> 153 ;
154 [label="team_placement <= 18.5\ngini = 0.167\nsamples = 312\nvalue = [284, 0, 18, 10]\nclass = 0", fillcolor="#e58139e7"] ;
134 -> 154 ;
155 [label="team_placement <= 3.5\ngini = 0.093\nsamples = 288\nvalue = [274, 0, 4, 10]\nclass = 0", fillcolor="#e58139f2"] ;
154 -> 155 ;
156 [label="survive_time <= 802.682\ngini = 0.397\nsamples = 11\nvalue = [3, 0, 0, 8]\nclass = 3", fillcolor="#d739e59f"] ;
155 -> 156 ;
157 [label="gini = 0.0\nsamples = 3\nvalue = [3, 0, 0, 0]\nclass = 0", fillcolor="#e58139ff"] ;
156 -> 157 ;
158 [label="gini = 0.0\nsamples = 8\nvalue = [0, 0, 0, 8]\nclass = 3", fillcolor="#d739e5ff"] ;
156 -> 158 ;
159 [label="survive_time <= 541.523\ngini = 0.043\nsamples = 277\nvalue = [271, 0, 4, 2]\nclass = 0", fillcolor="#e58139f9"] ;
155 -> 159 ;
160 [label="SMG <= 0.5\ngini = 0.444\nsamples = 3\nvalue = [1, 0, 2, 0]\nclass = 2", fillcolor="#399de57f"] ;
159 -> 160 ;
161 [label="gini = 0.0\nsamples = 1\nvalue = [1, 0, 0, 0]\nclass = 0", fillcolor="#e58139ff"] ;
160 -> 161 ;
162 [label="gini = 0.0\nsamples = 2\nvalue = [0, 0, 2, 0]\nclass = 2", fillcolor="#399de5ff"] ;
160 -> 162 ;
163 [label="travel_ratio <= 0.687\ngini = 0.029\nsamples = 274\nvalue = [270, 0, 2, 2]\nclass = 0", fillcolor="#e58139fb"] ;
159 -> 163 ;
164 [label="kill_knockdown_ratio <= 0.354\ngini = 0.015\nsamples = 269\nvalue = [267, 0, 1, 1]\nclass = 0", fillcolor="#e58139fd"] ;
163 -> 164 ;
165 [label="distance_walked <= 2302.171\ngini = 0.24\nsamples = 15\nvalue = [13, 0, 1, 1]\nclass = 0", fillcolor="#e58139db"] ;
164 -> 165 ;
166 [label="kill_distance <= 127.862\ngini = 0.133\nsamples = 14\nvalue = [13, 0, 1, 0]\nclass = 0", fillcolor="#e58139eb"] ;
165 -> 166 ;
167 [label="gini = 0.0\nsamples = 1\nvalue = [0, 0, 1, 0]\nclass = 2", fillcolor="#399de5ff"] ;
166 -> 167 ;
168 [label="gini = 0.0\nsamples = 13\nvalue = [13, 0, 0, 0]\nclass = 0", fillcolor="#e58139ff"] ;
166 -> 168 ;
169 [label="gini = 0.0\nsamples = 1\nvalue = [0, 0, 0, 1]\nclass = 3", fillcolor="#d739e5ff"] ;
165 -> 169 ;
170 [label="gini = 0.0\nsamples = 254\nvalue = [254, 0, 0, 0]\nclass = 0", fillcolor="#e58139ff"] ;
164 -> 170 ;
171 [label="killed_from <= 1528.231\ngini = 0.56\nsamples = 5\nvalue = [3, 0, 1, 1]\nclass = 0", fillcolor="#e581397f"] ;
163 -> 171 ;
172 [label="Shotgun <= 0.5\ngini = 0.5\nsamples = 2\nvalue = [0, 0, 1, 1]\nclass = 2", fillcolor="#399de500"] ;
171 -> 172 ;
173 [label="gini = 0.0\nsamples = 1\nvalue = [0, 0, 0, 1]\nclass = 3", fillcolor="#d739e5ff"] ;
172 -> 173 ;
174 [label="gini = 0.0\nsamples = 1\nvalue = [0, 0, 1, 0]\nclass = 2", fillcolor="#399de5ff"] ;
172 -> 174 ;
175 [label="gini = 0.0\nsamples = 3\nvalue = [3, 0, 0, 0]\nclass = 0", fillcolor="#e58139ff"] ;
171 -> 175 ;
176 [label="survive_time <= 707.333\ngini = 0.486\nsamples = 24\nvalue = [10, 0, 14, 0]\nclass = 2", fillcolor="#399de549"] ;
154 -> 176 ;
177 [label="gini = 0.0\nsamples = 12\nvalue = [0, 0, 12, 0]\nclass = 2", fillcolor="#399de5ff"] ;
176 -> 177 ;
178 [label="travel_ratio <= 0.658\ngini = 0.278\nsamples = 12\nvalue = [10, 0, 2, 0]\nclass = 0", fillcolor="#e58139cc"] ;
176 -> 178 ;
179 [label="gini = 0.0\nsamples = 9\nvalue = [9, 0, 0, 0]\nclass = 0", fillcolor="#e58139ff"] ;
178 -> 179 ;
180 [label="survive_time <= 784.302\ngini = 0.444\nsamples = 3\nvalue = [1, 0, 2, 0]\nclass = 2", fillcolor="#399de57f"] ;
178 -> 180 ;
181 [label="gini = 0.0\nsamples = 2\nvalue = [0, 0, 2, 0]\nclass = 2", fillcolor="#399de5ff"] ;
180 -> 181 ;
182 [label="gini = 0.0\nsamples = 1\nvalue = [1, 0, 0, 0]\nclass = 0", fillcolor="#e58139ff"] ;
180 -> 182 ;
183 [label="distance_rode <= 473.504\ngini = 0.035\nsamples = 41108\nvalue = [134, 0, 40378, 596]\nclass = 2", fillcolor="#399de5fa"] ;
1 -> 183 ;
184 [label="team_placement <= 8.5\ngini = 0.026\nsamples = 40714\nvalue = [16, 0, 40185, 513]\nclass = 2", fillcolor="#399de5fc"] ;
183 -> 184 ;
185 [label="survive_time <= 695.871\ngini = 0.247\nsamples = 2693\nvalue = [3, 0, 2305, 385]\nclass = 2", fillcolor="#399de5d4"] ;
184 -> 185 ;
186 [label="distance_rode <= 164.34\ngini = 0.046\nsamples = 2235\nvalue = [2, 0, 2182, 51]\nclass = 2", fillcolor="#399de5f9"] ;
185 -> 186 ;
187 [label="survive_time <= 573.361\ngini = 0.035\nsamples = 2214\nvalue = [0, 0, 2174, 40]\nclass = 2", fillcolor="#399de5fa"] ;
186 -> 187 ;
188 [label="distance_walked <= 1844.202\ngini = 0.004\nsamples = 1962\nvalue = [0, 0, 1958, 4]\nclass = 2", fillcolor="#399de5fe"] ;
187 -> 188 ;
189 [label="distance_walked <= 1105.701\ngini = 0.003\nsamples = 1959\nvalue = [0, 0, 1956, 3]\nclass = 2", fillcolor="#399de5ff"] ;
188 -> 189 ;
190 [label="gini = 0.0\nsamples = 1903\nvalue = [0, 0, 1903, 0]\nclass = 2", fillcolor="#399de5ff"] ;
189 -> 190 ;
191 [label="team_placement <= 1.5\ngini = 0.101\nsamples = 56\nvalue = [0, 0, 53, 3]\nclass = 2", fillcolor="#399de5f1"] ;
189 -> 191 ;
192 [label="gini = 0.0\nsamples = 1\nvalue = [0, 0, 0, 1]\nclass = 3", fillcolor="#d739e5ff"] ;
191 -> 192 ;
193 [label="travel_ratio <= 0.974\ngini = 0.07\nsamples = 55\nvalue = [0, 0, 53, 2]\nclass = 2", fillcolor="#399de5f5"] ;
191 -> 193 ;
194 [label="gini = 0.0\nsamples = 1\nvalue = [0, 0, 0, 1]\nclass = 3", fillcolor="#d739e5ff"] ;
193 -> 194 ;
195 [label="survive_time <= 563.97\ngini = 0.036\nsamples = 54\nvalue = [0, 0, 53, 1]\nclass = 2", fillcolor="#399de5fa"] ;
193 -> 195 ;
196 [label="gini = 0.0\nsamples = 49\nvalue = [0, 0, 49, 0]\nclass = 2", fillcolor="#399de5ff"] ;
195 -> 196 ;
197 [label="survive_time <= 566.568\ngini = 0.32\nsamples = 5\nvalue = [0, 0, 4, 1]\nclass = 2", fillcolor="#399de5bf"] ;
195 -> 197 ;
198 [label="gini = 0.0\nsamples = 1\nvalue = [0, 0, 0, 1]\nclass = 3", fillcolor="#d739e5ff"] ;
197 -> 198 ;
199 [label="gini = 0.0\nsamples = 4\nvalue = [0, 0, 4, 0]\nclass = 2", fillcolor="#399de5ff"] ;
197 -> 199 ;
200 [label="kill_distance <= 2366.498\ngini = 0.444\nsamples = 3\nvalue = [0, 0, 2, 1]\nclass = 2", fillcolor="#399de57f"] ;
188 -> 200 ;
201 [label="gini = 0.0\nsamples = 2\nvalue = [0, 0, 2, 0]\nclass = 2", fillcolor="#399de5ff"] ;
200 -> 201 ;
202 [label="gini = 0.0\nsamples = 1\nvalue = [0, 0, 0, 1]\nclass = 3", fillcolor="#d739e5ff"] ;
200 -> 202 ;
203 [label="team_placement <= 3.5\ngini = 0.245\nsamples = 252\nvalue = [0, 0, 216, 36]\nclass = 2", fillcolor="#399de5d4"] ;
187 -> 203 ;
204 [label="kill_distance <= 2473.615\ngini = 0.5\nsamples = 55\nvalue = [0, 0, 27, 28]\nclass = 3", fillcolor="#d739e509"] ;
203 -> 204 ;
205 [label="kill_count <= 1.5\ngini = 0.456\nsamples = 37\nvalue = [0, 0, 24, 13]\nclass = 2", fillcolor="#399de575"] ;
204 -> 205 ;
206 [label="team_placement <= 1.5\ngini = 0.227\nsamples = 23\nvalue = [0, 0, 20, 3]\nclass = 2", fillcolor="#399de5d9"] ;
205 -> 206 ;
207 [label="player_dmg <= 135.5\ngini = 0.444\nsamples = 3\nvalue = [0, 0, 1, 2]\nclass = 3", fillcolor="#d739e57f"] ;
206 -> 207 ;
208 [label="gini = 0.0\nsamples = 2\nvalue = [0, 0, 0, 2]\nclass = 3", fillcolor="#d739e5ff"] ;
207 -> 208 ;
209 [label="gini = 0.0\nsamples = 1\nvalue = [0, 0, 1, 0]\nclass = 2", fillcolor="#399de5ff"] ;
207 -> 209 ;
210 [label="survive_time <= 678.877\ngini = 0.095\nsamples = 20\nvalue = [0, 0, 19, 1]\nclass = 2", fillcolor="#399de5f2"] ;
206 -> 210 ;
211 [label="gini = 0.0\nsamples = 17\nvalue = [0, 0, 17, 0]\nclass = 2", fillcolor="#399de5ff"] ;
210 -> 211 ;
212 [label="kill_distance <= 505.192\ngini = 0.444\nsamples = 3\nvalue = [0, 0, 2, 1]\nclass = 2", fillcolor="#399de57f"] ;
210 -> 212 ;
213 [label="gini = 0.0\nsamples = 2\nvalue = [0, 0, 2, 0]\nclass = 2", fillcolor="#399de5ff"] ;
212 -> 213 ;
214 [label="gini = 0.0\nsamples = 1\nvalue = [0, 0, 0, 1]\nclass = 3", fillcolor="#d739e5ff"] ;
212 -> 214 ;
215 [label="kill_distance <= 494.121\ngini = 0.408\nsamples = 14\nvalue = [0, 0, 4, 10]\nclass = 3", fillcolor="#d739e599"] ;
205 -> 215 ;
216 [label="distance_walked <= 1099.215\ngini = 0.375\nsamples = 4\nvalue = [0, 0, 3, 1]\nclass = 2", fillcolor="#399de5aa"] ;
215 -> 216 ;
217 [label="gini = 0.0\nsamples = 3\nvalue = [0, 0, 3, 0]\nclass = 2", fillcolor="#399de5ff"] ;
216 -> 217 ;
218 [label="gini = 0.0\nsamples = 1\nvalue = [0, 0, 0, 1]\nclass = 3", fillcolor="#d739e5ff"] ;
216 -> 218 ;
219 [label="Throwable <= 0.5\ngini = 0.18\nsamples = 10\nvalue = [0, 0, 1, 9]\nclass = 3", fillcolor="#d739e5e3"] ;
215 -> 219 ;
220 [label="gini = 0.0\nsamples = 9\nvalue = [0, 0, 0, 9]\nclass = 3", fillcolor="#d739e5ff"] ;
219 -> 220 ;
221 [label="gini = 0.0\nsamples = 1\nvalue = [0, 0, 1, 0]\nclass = 2", fillcolor="#399de5ff"] ;
219 -> 221 ;
222 [label="team_placement <= 2.5\ngini = 0.278\nsamples = 18\nvalue = [0, 0, 3, 15]\nclass = 3", fillcolor="#d739e5cc"] ;
204 -> 222 ;
223 [label="gini = 0.0\nsamples = 11\nvalue = [0, 0, 0, 11]\nclass = 3", fillcolor="#d739e5ff"] ;
222 -> 223 ;
224 [label="distance_walked <= 1180.413\ngini = 0.49\nsamples = 7\nvalue = [0, 0, 3, 4]\nclass = 3", fillcolor="#d739e540"] ;
222 -> 224 ;
225 [label="kill_knockdown_ratio <= 0.583\ngini = 0.375\nsamples = 4\nvalue = [0, 0, 3, 1]\nclass = 2", fillcolor="#399de5aa"] ;
224 -> 225 ;
226 [label="gini = 0.0\nsamples = 3\nvalue = [0, 0, 3, 0]\nclass = 2", fillcolor="#399de5ff"] ;
225 -> 226 ;
227 [label="gini = 0.0\nsamples = 1\nvalue = [0, 0, 0, 1]\nclass = 3", fillcolor="#d739e5ff"] ;
225 -> 227 ;
228 [label="gini = 0.0\nsamples = 3\nvalue = [0, 0, 0, 3]\nclass = 3", fillcolor="#d739e5ff"] ;
224 -> 228 ;
229 [label="distance_walked <= 1725.007\ngini = 0.078\nsamples = 197\nvalue = [0, 0, 189, 8]\nclass = 2", fillcolor="#399de5f4"] ;
203 -> 229 ;
230 [label="killed_from <= 23169.922\ngini = 0.042\nsamples = 188\nvalue = [0, 0, 184, 4]\nclass = 2", fillcolor="#399de5f9"] ;
229 -> 230 ;
231 [label="distance_walked <= 1360.661\ngini = 0.032\nsamples = 186\nvalue = [0, 0, 183, 3]\nclass = 2", fillcolor="#399de5fb"] ;
230 -> 231 ;
232 [label="killed_from <= 11048.002\ngini = 0.012\nsamples = 171\nvalue = [0, 0, 170, 1]\nclass = 2", fillcolor="#399de5fd"] ;
231 -> 232 ;
233 [label="gini = 0.0\nsamples = 166\nvalue = [0, 0, 166, 0]\nclass = 2", fillcolor="#399de5ff"] ;
232 -> 233 ;
234 [label="killed_from <= 12491.521\ngini = 0.32\nsamples = 5\nvalue = [0, 0, 4, 1]\nclass = 2", fillcolor="#399de5bf"] ;
232 -> 234 ;
235 [label="gini = 0.0\nsamples = 1\nvalue = [0, 0, 0, 1]\nclass = 3", fillcolor="#d739e5ff"] ;
234 -> 235 ;
236 [label="gini = 0.0\nsamples = 4\nvalue = [0, 0, 4, 0]\nclass = 2", fillcolor="#399de5ff"] ;
234 -> 236 ;
237 [label="distance_walked <= 1378.148\ngini = 0.231\nsamples = 15\nvalue = [0, 0, 13, 2]\nclass = 2", fillcolor="#399de5d8"] ;
231 -> 237 ;
238 [label="gini = 0.0\nsamples = 1\nvalue = [0, 0, 0, 1]\nclass = 3", fillcolor="#d739e5ff"] ;
237 -> 238 ;
239 [label="player_assists <= 0.5\ngini = 0.133\nsamples = 14\nvalue = [0, 0, 13, 1]\nclass = 2", fillcolor="#399de5eb"] ;
237 -> 239 ;
240 [label="gini = 0.0\nsamples = 12\nvalue = [0, 0, 12, 0]\nclass = 2", fillcolor="#399de5ff"] ;
239 -> 240 ;
241 [label="player_dmg <= 122.5\ngini = 0.5\nsamples = 2\nvalue = [0, 0, 1, 1]\nclass = 2", fillcolor="#399de500"] ;
239 -> 241 ;
242 [label="gini = 0.0\nsamples = 1\nvalue = [0, 0, 1, 0]\nclass = 2", fillcolor="#399de5ff"] ;
241 -> 242 ;
243 [label="gini = 0.0\nsamples = 1\nvalue = [0, 0, 0, 1]\nclass = 3", fillcolor="#d739e5ff"] ;
241 -> 243 ;
244 [label="killed_from <= 24470.141\ngini = 0.5\nsamples = 2\nvalue = [0, 0, 1, 1]\nclass = 2", fillcolor="#399de500"] ;
230 -> 244 ;
245 [label="gini = 0.0\nsamples = 1\nvalue = [0, 0, 0, 1]\nclass = 3", fillcolor="#d739e5ff"] ;
244 -> 245 ;
246 [label="gini = 0.0\nsamples = 1\nvalue = [0, 0, 1, 0]\nclass = 2", fillcolor="#399de5ff"] ;
244 -> 246 ;
247 [label="killed_from <= 1564.614\ngini = 0.494\nsamples = 9\nvalue = [0, 0, 5, 4]\nclass = 2", fillcolor="#399de533"] ;
229 -> 247 ;
248 [label="gini = 0.0\nsamples = 5\nvalue = [0, 0, 5, 0]\nclass = 2", fillcolor="#399de5ff"] ;
247 -> 248 ;
249 [label="gini = 0.0\nsamples = 4\nvalue = [0, 0, 0, 4]\nclass = 3", fillcolor="#d739e5ff"] ;
247 -> 249 ;
250 [label="kill_distance <= 352.483\ngini = 0.571\nsamples = 21\nvalue = [2, 0, 8, 11]\nclass = 3", fillcolor="#d739e53b"] ;
186 -> 250 ;
251 [label="travel_ratio <= 0.73\ngini = 0.245\nsamples = 7\nvalue = [1, 0, 6, 0]\nclass = 2", fillcolor="#399de5d4"] ;
250 -> 251 ;
252 [label="gini = 0.0\nsamples = 1\nvalue = [1, 0, 0, 0]\nclass = 0", fillcolor="#e58139ff"] ;
251 -> 252 ;
253 [label="gini = 0.0\nsamples = 6\nvalue = [0, 0, 6, 0]\nclass = 2", fillcolor="#399de5ff"] ;
251 -> 253 ;
254 [label="survive_time <= 520.751\ngini = 0.357\nsamples = 14\nvalue = [1, 0, 2, 11]\nclass = 3", fillcolor="#d739e5bf"] ;
250 -> 254 ;
255 [label="gini = 0.0\nsamples = 2\nvalue = [0, 0, 2, 0]\nclass = 2", fillcolor="#399de5ff"] ;
254 -> 255 ;
256 [label="distance_walked <= 865.665\ngini = 0.153\nsamples = 12\nvalue = [1, 0, 0, 11]\nclass = 3", fillcolor="#d739e5e8"] ;
254 -> 256 ;
257 [label="gini = 0.0\nsamples = 1\nvalue = [1, 0, 0, 0]\nclass = 0", fillcolor="#e58139ff"] ;
256 -> 257 ;
258 [label="gini = 0.0\nsamples = 11\nvalue = [0, 0, 0, 11]\nclass = 3", fillcolor="#d739e5ff"] ;
256 -> 258 ;
259 [label="survive_time <= 806.15\ngini = 0.396\nsamples = 458\nvalue = [1, 0, 123, 334]\nclass = 3", fillcolor="#d739e5a1"] ;
185 -> 259 ;
260 [label="team_placement <= 4.5\ngini = 0.498\nsamples = 207\nvalue = [0, 0, 97, 110]\nclass = 3", fillcolor="#d739e51e"] ;
259 -> 260 ;
261 [label="kill_distance <= 438.374\ngini = 0.245\nsamples = 70\nvalue = [0, 0, 10, 60]\nclass = 3", fillcolor="#d739e5d4"] ;
260 -> 261 ;
262 [label="survive_time <= 782.531\ngini = 0.245\nsamples = 7\nvalue = [0, 0, 6, 1]\nclass = 2", fillcolor="#399de5d4"] ;
261 -> 262 ;
263 [label="gini = 0.0\nsamples = 6\nvalue = [0, 0, 6, 0]\nclass = 2", fillcolor="#399de5ff"] ;
262 -> 263 ;
264 [label="gini = 0.0\nsamples = 1\nvalue = [0, 0, 0, 1]\nclass = 3", fillcolor="#d739e5ff"] ;
262 -> 264 ;
265 [label="killed_from <= 281.0\ngini = 0.119\nsamples = 63\nvalue = [0, 0, 4, 59]\nclass = 3", fillcolor="#d739e5ee"] ;
261 -> 265 ;
266 [label="team_placement <= 3.5\ngini = 0.444\nsamples = 9\nvalue = [0, 0, 3, 6]\nclass = 3", fillcolor="#d739e57f"] ;
265 -> 266 ;
267 [label="gini = 0.0\nsamples = 5\nvalue = [0, 0, 0, 5]\nclass = 3", fillcolor="#d739e5ff"] ;
266 -> 267 ;
268 [label="survive_time <= 780.482\ngini = 0.375\nsamples = 4\nvalue = [0, 0, 3, 1]\nclass = 2", fillcolor="#399de5aa"] ;
266 -> 268 ;
269 [label="gini = 0.0\nsamples = 3\nvalue = [0, 0, 3, 0]\nclass = 2", fillcolor="#399de5ff"] ;
268 -> 269 ;
270 [label="gini = 0.0\nsamples = 1\nvalue = [0, 0, 0, 1]\nclass = 3", fillcolor="#d739e5ff"] ;
268 -> 270 ;
271 [label="kill_distance <= 718.926\ngini = 0.036\nsamples = 54\nvalue = [0, 0, 1, 53]\nclass = 3", fillcolor="#d739e5fa"] ;
265 -> 271 ;
272 [label="kill_distance <= 647.083\ngini = 0.32\nsamples = 5\nvalue = [0, 0, 1, 4]\nclass = 3", fillcolor="#d739e5bf"] ;
271 -> 272 ;
273 [label="gini = 0.0\nsamples = 4\nvalue = [0, 0, 0, 4]\nclass = 3", fillcolor="#d739e5ff"] ;
272 -> 273 ;
274 [label="gini = 0.0\nsamples = 1\nvalue = [0, 0, 1, 0]\nclass = 2", fillcolor="#399de5ff"] ;
272 -> 274 ;
275 [label="gini = 0.0\nsamples = 49\nvalue = [0, 0, 0, 49]\nclass = 3", fillcolor="#d739e5ff"] ;
271 -> 275 ;
276 [label="kill_distance <= 2902.086\ngini = 0.464\nsamples = 137\nvalue = [0, 0, 87, 50]\nclass = 2", fillcolor="#399de56c"] ;
260 -> 276 ;
277 [label="killed_from <= 15332.863\ngini = 0.367\nsamples = 95\nvalue = [0, 0, 72, 23]\nclass = 2", fillcolor="#399de5ae"] ;
276 -> 277 ;
278 [label="kill_knockdown_ratio <= 0.523\ngini = 0.32\nsamples = 90\nvalue = [0, 0, 72, 18]\nclass = 2", fillcolor="#399de5bf"] ;
277 -> 278 ;
279 [label="distance_rode <= 171.9\ngini = 0.168\nsamples = 65\nvalue = [0, 0, 59, 6]\nclass = 2", fillcolor="#399de5e5"] ;
278 -> 279 ;
280 [label="kill_knockdown_ratio <= 0.292\ngini = 0.094\nsamples = 61\nvalue = [0, 0, 58, 3]\nclass = 2", fillcolor="#399de5f2"] ;
279 -> 280 ;
281 [label="gini = 0.0\nsamples = 1\nvalue = [0, 0, 0, 1]\nclass = 3", fillcolor="#d739e5ff"] ;
280 -> 281 ;
282 [label="player_dmg <= 1.5\ngini = 0.064\nsamples = 60\nvalue = [0, 0, 58, 2]\nclass = 2", fillcolor="#399de5f6"] ;
280 -> 282 ;
283 [label="gini = 0.0\nsamples = 1\nvalue = [0, 0, 0, 1]\nclass = 3", fillcolor="#d739e5ff"] ;
282 -> 283 ;
284 [label="kill_count <= 2.5\ngini = 0.033\nsamples = 59\nvalue = [0, 0, 58, 1]\nclass = 2", fillcolor="#399de5fb"] ;
282 -> 284 ;
285 [label="gini = 0.0\nsamples = 53\nvalue = [0, 0, 53, 0]\nclass = 2", fillcolor="#399de5ff"] ;
284 -> 285 ;
286 [label="kill_distance <= 553.775\ngini = 0.278\nsamples = 6\nvalue = [0, 0, 5, 1]\nclass = 2", fillcolor="#399de5cc"] ;
284 -> 286 ;
287 [label="gini = 0.0\nsamples = 1\nvalue = [0, 0, 0, 1]\nclass = 3", fillcolor="#d739e5ff"] ;
286 -> 287 ;
288 [label="gini = 0.0\nsamples = 5\nvalue = [0, 0, 5, 0]\nclass = 2", fillcolor="#399de5ff"] ;
286 -> 288 ;
289 [label="distance_walked <= 1043.213\ngini = 0.375\nsamples = 4\nvalue = [0, 0, 1, 3]\nclass = 3", fillcolor="#d739e5aa"] ;
279 -> 289 ;
290 [label="gini = 0.0\nsamples = 1\nvalue = [0, 0, 1, 0]\nclass = 2", fillcolor="#399de5ff"] ;
289 -> 290 ;
291 [label="gini = 0.0\nsamples = 3\nvalue = [0, 0, 0, 3]\nclass = 3", fillcolor="#d739e5ff"] ;
289 -> 291 ;
292 [label="distance_walked <= 972.889\ngini = 0.499\nsamples = 25\nvalue = [0, 0, 13, 12]\nclass = 2", fillcolor="#399de514"] ;
278 -> 292 ;
293 [label="distance_walked <= 627.952\ngini = 0.298\nsamples = 11\nvalue = [0, 0, 9, 2]\nclass = 2", fillcolor="#399de5c6"] ;
292 -> 293 ;
294 [label="gini = 0.0\nsamples = 2\nvalue = [0, 0, 0, 2]\nclass = 3", fillcolor="#d739e5ff"] ;
293 -> 294 ;
295 [label="gini = 0.0\nsamples = 9\nvalue = [0, 0, 9, 0]\nclass = 2", fillcolor="#399de5ff"] ;
293 -> 295 ;
296 [label="distance_walked <= 1386.396\ngini = 0.408\nsamples = 14\nvalue = [0, 0, 4, 10]\nclass = 3", fillcolor="#d739e599"] ;
292 -> 296 ;
297 [label="gini = 0.0\nsamples = 5\nvalue = [0, 0, 0, 5]\nclass = 3", fillcolor="#d739e5ff"] ;
296 -> 297 ;
298 [label="killed_from <= 841.74\ngini = 0.494\nsamples = 9\nvalue = [0, 0, 4, 5]\nclass = 3", fillcolor="#d739e533"] ;
296 -> 298 ;
299 [label="gini = 0.0\nsamples = 3\nvalue = [0, 0, 3, 0]\nclass = 2", fillcolor="#399de5ff"] ;
298 -> 299 ;
300 [label="SMG <= 0.5\ngini = 0.278\nsamples = 6\nvalue = [0, 0, 1, 5]\nclass = 3", fillcolor="#d739e5cc"] ;
298 -> 300 ;
301 [label="gini = 0.0\nsamples = 5\nvalue = [0, 0, 0, 5]\nclass = 3", fillcolor="#d739e5ff"] ;
300 -> 301 ;
302 [label="gini = 0.0\nsamples = 1\nvalue = [0, 0, 1, 0]\nclass = 2", fillcolor="#399de5ff"] ;
300 -> 302 ;
303 [label="gini = 0.0\nsamples = 5\nvalue = [0, 0, 0, 5]\nclass = 3", fillcolor="#d739e5ff"] ;
277 -> 303 ;
304 [label="player_dmg <= 97.5\ngini = 0.459\nsamples = 42\nvalue = [0, 0, 15, 27]\nclass = 3", fillcolor="#d739e571"] ;
276 -> 304 ;
305 [label="distance_rode <= 120.793\ngini = 0.298\nsamples = 11\nvalue = [0, 0, 9, 2]\nclass = 2", fillcolor="#399de5c6"] ;
304 -> 305 ;
306 [label="kill_distance <= 12413.365\ngini = 0.18\nsamples = 10\nvalue = [0, 0, 9, 1]\nclass = 2", fillcolor="#399de5e3"] ;
305 -> 306 ;
307 [label="gini = 0.0\nsamples = 9\nvalue = [0, 0, 9, 0]\nclass = 2", fillcolor="#399de5ff"] ;
306 -> 307 ;
308 [label="gini = 0.0\nsamples = 1\nvalue = [0, 0, 0, 1]\nclass = 3", fillcolor="#d739e5ff"] ;
306 -> 308 ;
309 [label="gini = 0.0\nsamples = 1\nvalue = [0, 0, 0, 1]\nclass = 3", fillcolor="#d739e5ff"] ;
305 -> 309 ;
310 [label="kill_knockdown_ratio <= 0.367\ngini = 0.312\nsamples = 31\nvalue = [0, 0, 6, 25]\nclass = 3", fillcolor="#d739e5c2"] ;
304 -> 310 ;
311 [label="gini = 0.0\nsamples = 2\nvalue = [0, 0, 2, 0]\nclass = 2", fillcolor="#399de5ff"] ;
310 -> 311 ;
312 [label="SMG <= 0.5\ngini = 0.238\nsamples = 29\nvalue = [0, 0, 4, 25]\nclass = 3", fillcolor="#d739e5d6"] ;
310 -> 312 ;
313 [label="player_assists <= 1.5\ngini = 0.142\nsamples = 26\nvalue = [0, 0, 2, 24]\nclass = 3", fillcolor="#d739e5ea"] ;
312 -> 313 ;
314 [label="player_dmg <= 504.0\ngini = 0.08\nsamples = 24\nvalue = [0, 0, 1, 23]\nclass = 3", fillcolor="#d739e5f4"] ;
313 -> 314 ;
315 [label="gini = 0.0\nsamples = 22\nvalue = [0, 0, 0, 22]\nclass = 3", fillcolor="#d739e5ff"] ;
314 -> 315 ;
316 [label="Assault Rifle <= 0.5\ngini = 0.5\nsamples = 2\nvalue = [0, 0, 1, 1]\nclass = 2", fillcolor="#399de500"] ;
314 -> 316 ;
317 [label="gini = 0.0\nsamples = 1\nvalue = [0, 0, 1, 0]\nclass = 2", fillcolor="#399de5ff"] ;
316 -> 317 ;
318 [label="gini = 0.0\nsamples = 1\nvalue = [0, 0, 0, 1]\nclass = 3", fillcolor="#d739e5ff"] ;
316 -> 318 ;
319 [label="kill_distance <= 8260.193\ngini = 0.5\nsamples = 2\nvalue = [0, 0, 1, 1]\nclass = 2", fillcolor="#399de500"] ;
313 -> 319 ;
320 [label="gini = 0.0\nsamples = 1\nvalue = [0, 0, 1, 0]\nclass = 2", fillcolor="#399de5ff"] ;
319 -> 320 ;
321 [label="gini = 0.0\nsamples = 1\nvalue = [0, 0, 0, 1]\nclass = 3", fillcolor="#d739e5ff"] ;
319 -> 321 ;
322 [label="team_placement <= 6.5\ngini = 0.444\nsamples = 3\nvalue = [0, 0, 2, 1]\nclass = 2", fillcolor="#399de57f"] ;
312 -> 322 ;
323 [label="gini = 0.0\nsamples = 1\nvalue = [0, 0, 0, 1]\nclass = 3", fillcolor="#d739e5ff"] ;
322 -> 323 ;
324 [label="gini = 0.0\nsamples = 2\nvalue = [0, 0, 2, 0]\nclass = 2", fillcolor="#399de5ff"] ;
322 -> 324 ;
325 [label="distance_walked <= 1070.16\ngini = 0.193\nsamples = 251\nvalue = [1, 0, 26, 224]\nclass = 3", fillcolor="#d739e5e0"] ;
259 -> 325 ;
326 [label="team_placement <= 4.5\ngini = 0.507\nsamples = 34\nvalue = [1, 0, 13, 20]\nclass = 3", fillcolor="#d739e555"] ;
325 -> 326 ;
327 [label="gini = 0.0\nsamples = 13\nvalue = [0, 0, 0, 13]\nclass = 3", fillcolor="#d739e5ff"] ;
326 -> 327 ;
328 [label="kill_distance <= 2445.474\ngini = 0.503\nsamples = 21\nvalue = [1, 0, 13, 7]\nclass = 2", fillcolor="#399de56d"] ;
326 -> 328 ;
329 [label="distance_rode <= 124.914\ngini = 0.338\nsamples = 15\nvalue = [1, 0, 12, 2]\nclass = 2", fillcolor="#399de5c4"] ;
328 -> 329 ;
330 [label="kill_knockdown_ratio <= 0.75\ngini = 0.245\nsamples = 14\nvalue = [0, 0, 12, 2]\nclass = 2", fillcolor="#399de5d4"] ;
329 -> 330 ;
331 [label="kill_distance <= 144.471\ngini = 0.142\nsamples = 13\nvalue = [0, 0, 12, 1]\nclass = 2", fillcolor="#399de5ea"] ;
330 -> 331 ;
332 [label="player_dmg <= 146.5\ngini = 0.5\nsamples = 2\nvalue = [0, 0, 1, 1]\nclass = 2", fillcolor="#399de500"] ;
331 -> 332 ;
333 [label="gini = 0.0\nsamples = 1\nvalue = [0, 0, 1, 0]\nclass = 2", fillcolor="#399de5ff"] ;
332 -> 333 ;
334 [label="gini = 0.0\nsamples = 1\nvalue = [0, 0, 0, 1]\nclass = 3", fillcolor="#d739e5ff"] ;
332 -> 334 ;
335 [label="gini = 0.0\nsamples = 11\nvalue = [0, 0, 11, 0]\nclass = 2", fillcolor="#399de5ff"] ;
331 -> 335 ;
336 [label="gini = 0.0\nsamples = 1\nvalue = [0, 0, 0, 1]\nclass = 3", fillcolor="#d739e5ff"] ;
330 -> 336 ;
337 [label="gini = 0.0\nsamples = 1\nvalue = [1, 0, 0, 0]\nclass = 0", fillcolor="#e58139ff"] ;
329 -> 337 ;
338 [label="distance_walked <= 993.105\ngini = 0.278\nsamples = 6\nvalue = [0, 0, 1, 5]\nclass = 3", fillcolor="#d739e5cc"] ;
328 -> 338 ;
339 [label="gini = 0.0\nsamples = 5\nvalue = [0, 0, 0, 5]\nclass = 3", fillcolor="#d739e5ff"] ;
338 -> 339 ;
340 [label="gini = 0.0\nsamples = 1\nvalue = [0, 0, 1, 0]\nclass = 2", fillcolor="#399de5ff"] ;
338 -> 340 ;
341 [label="team_placement <= 6.5\ngini = 0.113\nsamples = 217\nvalue = [0, 0, 13, 204]\nclass = 3", fillcolor="#d739e5ef"] ;
325 -> 341 ;
342 [label="gini = 0.0\nsamples = 148\nvalue = [0, 0, 0, 148]\nclass = 3", fillcolor="#d739e5ff"] ;
341 -> 342 ;
343 [label="distance_walked <= 1516.159\ngini = 0.306\nsamples = 69\nvalue = [0, 0, 13, 56]\nclass = 3", fillcolor="#d739e5c4"] ;
341 -> 343 ;
344 [label="kill_distance <= 527.748\ngini = 0.466\nsamples = 27\nvalue = [0, 0, 10, 17]\nclass = 3", fillcolor="#d739e569"] ;
343 -> 344 ;
345 [label="gini = 0.0\nsamples = 4\nvalue = [0, 0, 4, 0]\nclass = 2", fillcolor="#399de5ff"] ;
344 -> 345 ;
346 [label="distance_walked <= 1464.644\ngini = 0.386\nsamples = 23\nvalue = [0, 0, 6, 17]\nclass = 3", fillcolor="#d739e5a5"] ;
344 -> 346 ;
347 [label="survive_time <= 815.36\ngini = 0.266\nsamples = 19\nvalue = [0, 0, 3, 16]\nclass = 3", fillcolor="#d739e5cf"] ;
346 -> 347 ;
348 [label="gini = 0.0\nsamples = 1\nvalue = [0, 0, 1, 0]\nclass = 2", fillcolor="#399de5ff"] ;
347 -> 348 ;
349 [label="player_dmg <= 21.0\ngini = 0.198\nsamples = 18\nvalue = [0, 0, 2, 16]\nclass = 3", fillcolor="#d739e5df"] ;
347 -> 349 ;
350 [label="down and out <= 0.5\ngini = 0.5\nsamples = 2\nvalue = [0, 0, 1, 1]\nclass = 2", fillcolor="#399de500"] ;
349 -> 350 ;
351 [label="gini = 0.0\nsamples = 1\nvalue = [0, 0, 0, 1]\nclass = 3", fillcolor="#d739e5ff"] ;
350 -> 351 ;
352 [label="gini = 0.0\nsamples = 1\nvalue = [0, 0, 1, 0]\nclass = 2", fillcolor="#399de5ff"] ;
350 -> 352 ;
353 [label="player_dmg <= 349.0\ngini = 0.117\nsamples = 16\nvalue = [0, 0, 1, 15]\nclass = 3", fillcolor="#d739e5ee"] ;
349 -> 353 ;
354 [label="gini = 0.0\nsamples = 14\nvalue = [0, 0, 0, 14]\nclass = 3", fillcolor="#d739e5ff"] ;
353 -> 354 ;
355 [label="Carbine <= 0.5\ngini = 0.5\nsamples = 2\nvalue = [0, 0, 1, 1]\nclass = 2", fillcolor="#399de500"] ;
353 -> 355 ;
356 [label="gini = 0.0\nsamples = 1\nvalue = [0, 0, 1, 0]\nclass = 2", fillcolor="#399de5ff"] ;
355 -> 356 ;
357 [label="gini = 0.0\nsamples = 1\nvalue = [0, 0, 0, 1]\nclass = 3", fillcolor="#d739e5ff"] ;
355 -> 357 ;
358 [label="survive_time <= 814.656\ngini = 0.375\nsamples = 4\nvalue = [0, 0, 3, 1]\nclass = 2", fillcolor="#399de5aa"] ;
346 -> 358 ;
359 [label="gini = 0.0\nsamples = 1\nvalue = [0, 0, 0, 1]\nclass = 3", fillcolor="#d739e5ff"] ;
358 -> 359 ;
360 [label="gini = 0.0\nsamples = 3\nvalue = [0, 0, 3, 0]\nclass = 2", fillcolor="#399de5ff"] ;
358 -> 360 ;
361 [label="kill_knockdown_ratio <= 0.45\ngini = 0.133\nsamples = 42\nvalue = [0, 0, 3, 39]\nclass = 3", fillcolor="#d739e5eb"] ;
343 -> 361 ;
362 [label="gini = 0.0\nsamples = 1\nvalue = [0, 0, 1, 0]\nclass = 2", fillcolor="#399de5ff"] ;
361 -> 362 ;
363 [label="killed_from <= 212.541\ngini = 0.093\nsamples = 41\nvalue = [0, 0, 2, 39]\nclass = 3", fillcolor="#d739e5f2"] ;
361 -> 363 ;
364 [label="kill_distance <= 2476.702\ngini = 0.375\nsamples = 4\nvalue = [0, 0, 1, 3]\nclass = 3", fillcolor="#d739e5aa"] ;
363 -> 364 ;
365 [label="gini = 0.0\nsamples = 3\nvalue = [0, 0, 0, 3]\nclass = 3", fillcolor="#d739e5ff"] ;
364 -> 365 ;
366 [label="gini = 0.0\nsamples = 1\nvalue = [0, 0, 1, 0]\nclass = 2", fillcolor="#399de5ff"] ;
364 -> 366 ;
367 [label="down and out <= 0.5\ngini = 0.053\nsamples = 37\nvalue = [0, 0, 1, 36]\nclass = 3", fillcolor="#d739e5f8"] ;
363 -> 367 ;
368 [label="gini = 0.0\nsamples = 29\nvalue = [0, 0, 0, 29]\nclass = 3", fillcolor="#d739e5ff"] ;
367 -> 368 ;
369 [label="killed_from <= 1733.806\ngini = 0.219\nsamples = 8\nvalue = [0, 0, 1, 7]\nclass = 3", fillcolor="#d739e5db"] ;
367 -> 369 ;
370 [label="kill_distance <= 2421.735\ngini = 0.5\nsamples = 2\nvalue = [0, 0, 1, 1]\nclass = 2", fillcolor="#399de500"] ;
369 -> 370 ;
371 [label="gini = 0.0\nsamples = 1\nvalue = [0, 0, 1, 0]\nclass = 2", fillcolor="#399de5ff"] ;
370 -> 371 ;
372 [label="gini = 0.0\nsamples = 1\nvalue = [0, 0, 0, 1]\nclass = 3", fillcolor="#d739e5ff"] ;
370 -> 372 ;
373 [label="gini = 0.0\nsamples = 6\nvalue = [0, 0, 0, 6]\nclass = 3", fillcolor="#d739e5ff"] ;
369 -> 373 ;
374 [label="distance_walked <= 2678.781\ngini = 0.007\nsamples = 38021\nvalue = [13, 0, 37880, 128]\nclass = 2", fillcolor="#399de5fe"] ;
184 -> 374 ;
375 [label="survive_time <= 877.93\ngini = 0.006\nsamples = 37918\nvalue = [13, 0, 37812, 93]\nclass = 2", fillcolor="#399de5fe"] ;
374 -> 375 ;
376 [label="distance_rode <= 440.995\ngini = 0.002\nsamples = 37056\nvalue = [9, 0, 37018, 29]\nclass = 2", fillcolor="#399de5ff"] ;
375 -> 376 ;
377 [label="survive_time <= 805.723\ngini = 0.002\nsamples = 37013\nvalue = [5, 0, 36982, 26]\nclass = 2", fillcolor="#399de5ff"] ;
376 -> 377 ;
378 [label="travel_ratio <= 0.696\ngini = 0.0\nsamples = 35691\nvalue = [3, 0, 35686, 2]\nclass = 2", fillcolor="#399de5ff"] ;
377 -> 378 ;
379 [label="kill_distance <= 13478.445\ngini = 0.159\nsamples = 23\nvalue = [2, 0, 21, 0]\nclass = 2", fillcolor="#399de5e7"] ;
378 -> 379 ;
380 [label="travel_ratio <= 0.696\ngini = 0.087\nsamples = 22\nvalue = [1, 0, 21, 0]\nclass = 2", fillcolor="#399de5f3"] ;
379 -> 380 ;
381 [label="gini = 0.0\nsamples = 21\nvalue = [0, 0, 21, 0]\nclass = 2", fillcolor="#399de5ff"] ;
380 -> 381 ;
382 [label="gini = 0.0\nsamples = 1\nvalue = [1, 0, 0, 0]\nclass = 0", fillcolor="#e58139ff"] ;
380 -> 382 ;
383 [label="gini = 0.0\nsamples = 1\nvalue = [1, 0, 0, 0]\nclass = 0", fillcolor="#e58139ff"] ;
379 -> 383 ;
384 [label="player_dmg <= 799.5\ngini = 0.0\nsamples = 35668\nvalue = [1, 0, 35665, 2]\nclass = 2", fillcolor="#399de5ff"] ;
378 -> 384 ;
385 [label="distance_rode <= 318.966\ngini = 0.0\nsamples = 35646\nvalue = [1, 0, 35644, 1]\nclass = 2", fillcolor="#399de5ff"] ;
384 -> 385 ;
386 [label="gini = 0.0\nsamples = 35475\nvalue = [0, 0, 35475, 0]\nclass = 2", fillcolor="#399de5ff"] ;
385 -> 386 ;
387 [label="travel_ratio <= 0.868\ngini = 0.023\nsamples = 171\nvalue = [1, 0, 169, 1]\nclass = 2", fillcolor="#399de5fc"] ;
385 -> 387 ;
388 [label="killed_from <= 16958.707\ngini = 0.012\nsamples = 170\nvalue = [1, 0, 169, 0]\nclass = 2", fillcolor="#399de5fd"] ;
387 -> 388 ;
389 [label="gini = 0.0\nsamples = 166\nvalue = [0, 0, 166, 0]\nclass = 2", fillcolor="#399de5ff"] ;
388 -> 389 ;
390 [label="killed_from <= 21729.359\ngini = 0.375\nsamples = 4\nvalue = [1, 0, 3, 0]\nclass = 2", fillcolor="#399de5aa"] ;
388 -> 390 ;
391 [label="gini = 0.0\nsamples = 1\nvalue = [1, 0, 0, 0]\nclass = 0", fillcolor="#e58139ff"] ;
390 -> 391 ;
392 [label="gini = 0.0\nsamples = 3\nvalue = [0, 0, 3, 0]\nclass = 2", fillcolor="#399de5ff"] ;
390 -> 392 ;
393 [label="gini = 0.0\nsamples = 1\nvalue = [0, 0, 0, 1]\nclass = 3", fillcolor="#d739e5ff"] ;
387 -> 393 ;
394 [label="Carbine <= 0.5\ngini = 0.087\nsamples = 22\nvalue = [0, 0, 21, 1]\nclass = 2", fillcolor="#399de5f3"] ;
384 -> 394 ;
395 [label="gini = 0.0\nsamples = 21\nvalue = [0, 0, 21, 0]\nclass = 2", fillcolor="#399de5ff"] ;
394 -> 395 ;
396 [label="gini = 0.0\nsamples = 1\nvalue = [0, 0, 0, 1]\nclass = 3", fillcolor="#d739e5ff"] ;
394 -> 396 ;
397 [label="team_placement <= 11.5\ngini = 0.039\nsamples = 1322\nvalue = [2, 0, 1296, 24]\nclass = 2", fillcolor="#399de5fa"] ;
377 -> 397 ;
398 [label="killed_from <= 18090.824\ngini = 0.222\nsamples = 175\nvalue = [2, 0, 153, 20]\nclass = 2", fillcolor="#399de5db"] ;
397 -> 398 ;
399 [label="distance_rode <= 63.248\ngini = 0.166\nsamples = 166\nvalue = [2, 0, 151, 13]\nclass = 2", fillcolor="#399de5e6"] ;
398 -> 399 ;
400 [label="kill_distance <= 11092.748\ngini = 0.069\nsamples = 139\nvalue = [0, 0, 134, 5]\nclass = 2", fillcolor="#399de5f5"] ;
399 -> 400 ;
401 [label="distance_walked <= 2590.16\ngini = 0.043\nsamples = 136\nvalue = [0, 0, 133, 3]\nclass = 2", fillcolor="#399de5f9"] ;
400 -> 401 ;
402 [label="player_assists <= 2.5\ngini = 0.029\nsamples = 135\nvalue = [0, 0, 133, 2]\nclass = 2", fillcolor="#399de5fb"] ;
401 -> 402 ;
403 [label="killed_from <= 13534.572\ngini = 0.015\nsamples = 133\nvalue = [0, 0, 132, 1]\nclass = 2", fillcolor="#399de5fd"] ;
402 -> 403 ;
404 [label="gini = 0.0\nsamples = 127\nvalue = [0, 0, 127, 0]\nclass = 2", fillcolor="#399de5ff"] ;
403 -> 404 ;
405 [label="kill_knockdown_ratio <= 0.625\ngini = 0.278\nsamples = 6\nvalue = [0, 0, 5, 1]\nclass = 2", fillcolor="#399de5cc"] ;
403 -> 405 ;
406 [label="gini = 0.0\nsamples = 5\nvalue = [0, 0, 5, 0]\nclass = 2", fillcolor="#399de5ff"] ;
405 -> 406 ;
407 [label="gini = 0.0\nsamples = 1\nvalue = [0, 0, 0, 1]\nclass = 3", fillcolor="#d739e5ff"] ;
405 -> 407 ;
408 [label="kill_count <= 2.5\ngini = 0.5\nsamples = 2\nvalue = [0, 0, 1, 1]\nclass = 2", fillcolor="#399de500"] ;
402 -> 408 ;
409 [label="gini = 0.0\nsamples = 1\nvalue = [0, 0, 0, 1]\nclass = 3", fillcolor="#d739e5ff"] ;
408 -> 409 ;
410 [label="gini = 0.0\nsamples = 1\nvalue = [0, 0, 1, 0]\nclass = 2", fillcolor="#399de5ff"] ;
408 -> 410 ;
411 [label="gini = 0.0\nsamples = 1\nvalue = [0, 0, 0, 1]\nclass = 3", fillcolor="#d739e5ff"] ;
401 -> 411 ;
412 [label="kill_knockdown_ratio <= 0.45\ngini = 0.444\nsamples = 3\nvalue = [0, 0, 1, 2]\nclass = 3", fillcolor="#d739e57f"] ;
400 -> 412 ;
413 [label="gini = 0.0\nsamples = 1\nvalue = [0, 0, 1, 0]\nclass = 2", fillcolor="#399de5ff"] ;
412 -> 413 ;
414 [label="gini = 0.0\nsamples = 2\nvalue = [0, 0, 0, 2]\nclass = 3", fillcolor="#d739e5ff"] ;
412 -> 414 ;
415 [label="travel_ratio <= 0.744\ngini = 0.51\nsamples = 27\nvalue = [2, 0, 17, 8]\nclass = 2", fillcolor="#399de579"] ;
399 -> 415 ;
416 [label="gini = 0.0\nsamples = 2\nvalue = [2, 0, 0, 0]\nclass = 0", fillcolor="#e58139ff"] ;
415 -> 416 ;
417 [label="survive_time <= 846.073\ngini = 0.435\nsamples = 25\nvalue = [0, 0, 17, 8]\nclass = 2", fillcolor="#399de587"] ;
415 -> 417 ;
418 [label="kill_knockdown_ratio <= 0.833\ngini = 0.142\nsamples = 13\nvalue = [0, 0, 12, 1]\nclass = 2", fillcolor="#399de5ea"] ;
417 -> 418 ;
419 [label="gini = 0.0\nsamples = 12\nvalue = [0, 0, 12, 0]\nclass = 2", fillcolor="#399de5ff"] ;
418 -> 419 ;
420 [label="gini = 0.0\nsamples = 1\nvalue = [0, 0, 0, 1]\nclass = 3", fillcolor="#d739e5ff"] ;
418 -> 420 ;
421 [label="player_dmg <= 187.0\ngini = 0.486\nsamples = 12\nvalue = [0, 0, 5, 7]\nclass = 3", fillcolor="#d739e549"] ;
417 -> 421 ;
422 [label="gini = 0.0\nsamples = 4\nvalue = [0, 0, 4, 0]\nclass = 2", fillcolor="#399de5ff"] ;
421 -> 422 ;
423 [label="distance_rode <= 388.165\ngini = 0.219\nsamples = 8\nvalue = [0, 0, 1, 7]\nclass = 3", fillcolor="#d739e5db"] ;
421 -> 423 ;
424 [label="gini = 0.0\nsamples = 7\nvalue = [0, 0, 0, 7]\nclass = 3", fillcolor="#d739e5ff"] ;
423 -> 424 ;
425 [label="gini = 0.0\nsamples = 1\nvalue = [0, 0, 1, 0]\nclass = 2", fillcolor="#399de5ff"] ;
423 -> 425 ;
426 [label="kill_knockdown_ratio <= 0.528\ngini = 0.346\nsamples = 9\nvalue = [0, 0, 2, 7]\nclass = 3", fillcolor="#d739e5b6"] ;
398 -> 426 ;
427 [label="gini = 0.0\nsamples = 2\nvalue = [0, 0, 2, 0]\nclass = 2", fillcolor="#399de5ff"] ;
426 -> 427 ;
428 [label="gini = 0.0\nsamples = 7\nvalue = [0, 0, 0, 7]\nclass = 3", fillcolor="#d739e5ff"] ;
426 -> 428 ;
429 [label="player_dmg <= 902.0\ngini = 0.007\nsamples = 1147\nvalue = [0, 0, 1143, 4]\nclass = 2", fillcolor="#399de5fe"] ;
397 -> 429 ;
430 [label="killed_from <= 25008.008\ngini = 0.005\nsamples = 1146\nvalue = [0, 0, 1143, 3]\nclass = 2", fillcolor="#399de5fe"] ;
429 -> 430 ;
431 [label="gini = 0.0\nsamples = 1126\nvalue = [0, 0, 1126, 0]\nclass = 2", fillcolor="#399de5ff"] ;
430 -> 431 ;
432 [label="survive_time <= 866.02\ngini = 0.255\nsamples = 20\nvalue = [0, 0, 17, 3]\nclass = 2", fillcolor="#399de5d2"] ;
430 -> 432 ;
433 [label="kill_count <= 3.5\ngini = 0.105\nsamples = 18\nvalue = [0, 0, 17, 1]\nclass = 2", fillcolor="#399de5f0"] ;
432 -> 433 ;
434 [label="gini = 0.0\nsamples = 17\nvalue = [0, 0, 17, 0]\nclass = 2", fillcolor="#399de5ff"] ;
433 -> 434 ;
435 [label="gini = 0.0\nsamples = 1\nvalue = [0, 0, 0, 1]\nclass = 3", fillcolor="#d739e5ff"] ;
433 -> 435 ;
436 [label="gini = 0.0\nsamples = 2\nvalue = [0, 0, 0, 2]\nclass = 3", fillcolor="#d739e5ff"] ;
432 -> 436 ;
437 [label="gini = 0.0\nsamples = 1\nvalue = [0, 0, 0, 1]\nclass = 3", fillcolor="#d739e5ff"] ;
429 -> 437 ;
438 [label="team_placement <= 10.5\ngini = 0.286\nsamples = 43\nvalue = [4, 0, 36, 3]\nclass = 2", fillcolor="#399de5d1"] ;
376 -> 438 ;
439 [label="distance_rode <= 455.779\ngini = 0.444\nsamples = 3\nvalue = [1, 0, 0, 2]\nclass = 3", fillcolor="#d739e57f"] ;
438 -> 439 ;
440 [label="gini = 0.0\nsamples = 2\nvalue = [0, 0, 0, 2]\nclass = 3", fillcolor="#d739e5ff"] ;
439 -> 440 ;
441 [label="gini = 0.0\nsamples = 1\nvalue = [1, 0, 0, 0]\nclass = 0", fillcolor="#e58139ff"] ;
439 -> 441 ;
442 [label="survive_time <= 858.855\ngini = 0.184\nsamples = 40\nvalue = [3, 0, 36, 1]\nclass = 2", fillcolor="#399de5e3"] ;
438 -> 442 ;
443 [label="player_dmg <= 524.0\ngini = 0.054\nsamples = 36\nvalue = [0, 0, 35, 1]\nclass = 2", fillcolor="#399de5f8"] ;
442 -> 443 ;
444 [label="gini = 0.0\nsamples = 35\nvalue = [0, 0, 35, 0]\nclass = 2", fillcolor="#399de5ff"] ;
443 -> 444 ;
445 [label="gini = 0.0\nsamples = 1\nvalue = [0, 0, 0, 1]\nclass = 3", fillcolor="#d739e5ff"] ;
443 -> 445 ;
446 [label="travel_ratio <= 0.771\ngini = 0.375\nsamples = 4\nvalue = [3, 0, 1, 0]\nclass = 0", fillcolor="#e58139aa"] ;
442 -> 446 ;
447 [label="gini = 0.0\nsamples = 3\nvalue = [3, 0, 0, 0]\nclass = 0", fillcolor="#e58139ff"] ;
446 -> 447 ;
448 [label="gini = 0.0\nsamples = 1\nvalue = [0, 0, 1, 0]\nclass = 2", fillcolor="#399de5ff"] ;
446 -> 448 ;
449 [label="team_placement <= 11.5\ngini = 0.146\nsamples = 862\nvalue = [4, 0, 794, 64]\nclass = 2", fillcolor="#399de5e9"] ;
375 -> 449 ;
450 [label="kill_count <= 2.5\ngini = 0.452\nsamples = 151\nvalue = [1, 0, 100, 50]\nclass = 2", fillcolor="#399de57e"] ;
449 -> 450 ;
451 [label="kill_knockdown_ratio <= 0.583\ngini = 0.339\nsamples = 108\nvalue = [1, 0, 85, 22]\nclass = 2", fillcolor="#399de5bb"] ;
450 -> 451 ;
452 [label="kill_distance <= 6995.331\ngini = 0.176\nsamples = 73\nvalue = [1, 0, 66, 6]\nclass = 2", fillcolor="#399de5e4"] ;
451 -> 452 ;
453 [label="travel_ratio <= 0.754\ngini = 0.086\nsamples = 67\nvalue = [1, 0, 64, 2]\nclass = 2", fillcolor="#399de5f3"] ;
452 -> 453 ;
454 [label="gini = 0.0\nsamples = 1\nvalue = [1, 0, 0, 0]\nclass = 0", fillcolor="#e58139ff"] ;
453 -> 454 ;
455 [label="killed_from <= 25581.941\ngini = 0.059\nsamples = 66\nvalue = [0, 0, 64, 2]\nclass = 2", fillcolor="#399de5f7"] ;
453 -> 455 ;
456 [label="distance_walked <= 2359.697\ngini = 0.03\nsamples = 65\nvalue = [0, 0, 64, 1]\nclass = 2", fillcolor="#399de5fb"] ;
455 -> 456 ;
457 [label="gini = 0.0\nsamples = 62\nvalue = [0, 0, 62, 0]\nclass = 2", fillcolor="#399de5ff"] ;
456 -> 457 ;
458 [label="kill_knockdown_ratio <= 0.367\ngini = 0.444\nsamples = 3\nvalue = [0, 0, 2, 1]\nclass = 2", fillcolor="#399de57f"] ;
456 -> 458 ;
459 [label="gini = 0.0\nsamples = 1\nvalue = [0, 0, 0, 1]\nclass = 3", fillcolor="#d739e5ff"] ;
458 -> 459 ;
460 [label="gini = 0.0\nsamples = 2\nvalue = [0, 0, 2, 0]\nclass = 2", fillcolor="#399de5ff"] ;
458 -> 460 ;
461 [label="gini = 0.0\nsamples = 1\nvalue = [0, 0, 0, 1]\nclass = 3", fillcolor="#d739e5ff"] ;
455 -> 461 ;
462 [label="survive_time <= 927.703\ngini = 0.444\nsamples = 6\nvalue = [0, 0, 2, 4]\nclass = 3", fillcolor="#d739e57f"] ;
452 -> 462 ;
463 [label="knockdown_count <= 1.5\ngini = 0.444\nsamples = 3\nvalue = [0, 0, 2, 1]\nclass = 2", fillcolor="#399de57f"] ;
462 -> 463 ;
464 [label="gini = 0.0\nsamples = 2\nvalue = [0, 0, 2, 0]\nclass = 2", fillcolor="#399de5ff"] ;
463 -> 464 ;
465 [label="gini = 0.0\nsamples = 1\nvalue = [0, 0, 0, 1]\nclass = 3", fillcolor="#d739e5ff"] ;
463 -> 465 ;
466 [label="gini = 0.0\nsamples = 3\nvalue = [0, 0, 0, 3]\nclass = 3", fillcolor="#d739e5ff"] ;
462 -> 466 ;
467 [label="distance_walked <= 1095.832\ngini = 0.496\nsamples = 35\nvalue = [0, 0, 19, 16]\nclass = 2", fillcolor="#399de528"] ;
451 -> 467 ;
468 [label="gini = 0.0\nsamples = 8\nvalue = [0, 0, 8, 0]\nclass = 2", fillcolor="#399de5ff"] ;
467 -> 468 ;
469 [label="kill_distance <= 433.523\ngini = 0.483\nsamples = 27\nvalue = [0, 0, 11, 16]\nclass = 3", fillcolor="#d739e550"] ;
467 -> 469 ;
470 [label="gini = 0.0\nsamples = 5\nvalue = [0, 0, 5, 0]\nclass = 2", fillcolor="#399de5ff"] ;
469 -> 470 ;
471 [label="killed_from <= 5775.585\ngini = 0.397\nsamples = 22\nvalue = [0, 0, 6, 16]\nclass = 3", fillcolor="#d739e59f"] ;
469 -> 471 ;
472 [label="team_placement <= 10.5\ngini = 0.48\nsamples = 15\nvalue = [0, 0, 6, 9]\nclass = 3", fillcolor="#d739e555"] ;
471 -> 472 ;
473 [label="Melee <= 0.5\ngini = 0.32\nsamples = 10\nvalue = [0, 0, 2, 8]\nclass = 3", fillcolor="#d739e5bf"] ;
472 -> 473 ;
474 [label="survive_time <= 883.655\ngini = 0.198\nsamples = 9\nvalue = [0, 0, 1, 8]\nclass = 3", fillcolor="#d739e5df"] ;
473 -> 474 ;
475 [label="gini = 0.0\nsamples = 1\nvalue = [0, 0, 1, 0]\nclass = 2", fillcolor="#399de5ff"] ;
474 -> 475 ;
476 [label="gini = 0.0\nsamples = 8\nvalue = [0, 0, 0, 8]\nclass = 3", fillcolor="#d739e5ff"] ;
474 -> 476 ;
477 [label="gini = 0.0\nsamples = 1\nvalue = [0, 0, 1, 0]\nclass = 2", fillcolor="#399de5ff"] ;
473 -> 477 ;
478 [label="survive_time <= 905.469\ngini = 0.32\nsamples = 5\nvalue = [0, 0, 4, 1]\nclass = 2", fillcolor="#399de5bf"] ;
472 -> 478 ;
479 [label="gini = 0.0\nsamples = 1\nvalue = [0, 0, 0, 1]\nclass = 3", fillcolor="#d739e5ff"] ;
478 -> 479 ;
480 [label="gini = 0.0\nsamples = 4\nvalue = [0, 0, 4, 0]\nclass = 2", fillcolor="#399de5ff"] ;
478 -> 480 ;
481 [label="gini = 0.0\nsamples = 7\nvalue = [0, 0, 0, 7]\nclass = 3", fillcolor="#d739e5ff"] ;
471 -> 481 ;
482 [label="distance_walked <= 1479.645\ngini = 0.454\nsamples = 43\nvalue = [0, 0, 15, 28]\nclass = 3", fillcolor="#d739e576"] ;
450 -> 482 ;
483 [label="player_assists <= 0.5\ngini = 0.42\nsamples = 20\nvalue = [0, 0, 14, 6]\nclass = 2", fillcolor="#399de592"] ;
482 -> 483 ;
484 [label="kill_distance <= 5341.004\ngini = 0.231\nsamples = 15\nvalue = [0, 0, 13, 2]\nclass = 2", fillcolor="#399de5d8"] ;
483 -> 484 ;
485 [label="gini = 0.0\nsamples = 12\nvalue = [0, 0, 12, 0]\nclass = 2", fillcolor="#399de5ff"] ;
484 -> 485 ;
486 [label="kill_distance <= 9377.317\ngini = 0.444\nsamples = 3\nvalue = [0, 0, 1, 2]\nclass = 3", fillcolor="#d739e57f"] ;
484 -> 486 ;
487 [label="gini = 0.0\nsamples = 2\nvalue = [0, 0, 0, 2]\nclass = 3", fillcolor="#d739e5ff"] ;
486 -> 487 ;
488 [label="gini = 0.0\nsamples = 1\nvalue = [0, 0, 1, 0]\nclass = 2", fillcolor="#399de5ff"] ;
486 -> 488 ;
489 [label="survive_time <= 897.574\ngini = 0.32\nsamples = 5\nvalue = [0, 0, 1, 4]\nclass = 3", fillcolor="#d739e5bf"] ;
483 -> 489 ;
490 [label="gini = 0.0\nsamples = 1\nvalue = [0, 0, 1, 0]\nclass = 2", fillcolor="#399de5ff"] ;
489 -> 490 ;
491 [label="gini = 0.0\nsamples = 4\nvalue = [0, 0, 0, 4]\nclass = 3", fillcolor="#d739e5ff"] ;
489 -> 491 ;
492 [label="kill_distance <= 609.997\ngini = 0.083\nsamples = 23\nvalue = [0, 0, 1, 22]\nclass = 3", fillcolor="#d739e5f3"] ;
482 -> 492 ;
493 [label="gini = 0.0\nsamples = 1\nvalue = [0, 0, 1, 0]\nclass = 2", fillcolor="#399de5ff"] ;
492 -> 493 ;
494 [label="gini = 0.0\nsamples = 22\nvalue = [0, 0, 0, 22]\nclass = 3", fillcolor="#d739e5ff"] ;
492 -> 494 ;
495 [label="travel_ratio <= 0.732\ngini = 0.047\nsamples = 711\nvalue = [3, 0, 694, 14]\nclass = 2", fillcolor="#399de5f9"] ;
449 -> 495 ;
496 [label="gini = 0.0\nsamples = 3\nvalue = [3, 0, 0, 0]\nclass = 0", fillcolor="#e58139ff"] ;
495 -> 496 ;
497 [label="kill_count <= 8.5\ngini = 0.039\nsamples = 708\nvalue = [0, 0, 694, 14]\nclass = 2", fillcolor="#399de5fa"] ;
495 -> 497 ;
498 [label="kill_distance <= 30053.457\ngini = 0.033\nsamples = 706\nvalue = [0, 0, 694, 12]\nclass = 2", fillcolor="#399de5fb"] ;
497 -> 498 ;
499 [label="killed_from <= 24838.645\ngini = 0.031\nsamples = 705\nvalue = [0, 0, 694, 11]\nclass = 2", fillcolor="#399de5fb"] ;
498 -> 499 ;
500 [label="killed_from <= 15122.692\ngini = 0.023\nsamples = 695\nvalue = [0, 0, 687, 8]\nclass = 2", fillcolor="#399de5fc"] ;
499 -> 500 ;
501 [label="survive_time <= 935.374\ngini = 0.012\nsamples = 649\nvalue = [0, 0, 645, 4]\nclass = 2", fillcolor="#399de5fd"] ;
500 -> 501 ;
502 [label="distance_walked <= 2601.805\ngini = 0.006\nsamples = 627\nvalue = [0, 0, 625, 2]\nclass = 2", fillcolor="#399de5fe"] ;
501 -> 502 ;
503 [label="kill_knockdown_ratio <= 0.9\ngini = 0.003\nsamples = 616\nvalue = [0, 0, 615, 1]\nclass = 2", fillcolor="#399de5ff"] ;
502 -> 503 ;
504 [label="gini = 0.0\nsamples = 568\nvalue = [0, 0, 568, 0]\nclass = 2", fillcolor="#399de5ff"] ;
503 -> 504 ;
505 [label="kill_distance <= 6196.934\ngini = 0.041\nsamples = 48\nvalue = [0, 0, 47, 1]\nclass = 2", fillcolor="#399de5fa"] ;
503 -> 505 ;
506 [label="gini = 0.0\nsamples = 42\nvalue = [0, 0, 42, 0]\nclass = 2", fillcolor="#399de5ff"] ;
505 -> 506 ;
507 [label="survive_time <= 927.828\ngini = 0.278\nsamples = 6\nvalue = [0, 0, 5, 1]\nclass = 2", fillcolor="#399de5cc"] ;
505 -> 507 ;
508 [label="gini = 0.0\nsamples = 5\nvalue = [0, 0, 5, 0]\nclass = 2", fillcolor="#399de5ff"] ;
507 -> 508 ;
509 [label="gini = 0.0\nsamples = 1\nvalue = [0, 0, 0, 1]\nclass = 3", fillcolor="#d739e5ff"] ;
507 -> 509 ;
510 [label="distance_walked <= 2605.46\ngini = 0.165\nsamples = 11\nvalue = [0, 0, 10, 1]\nclass = 2", fillcolor="#399de5e6"] ;
502 -> 510 ;
511 [label="gini = 0.0\nsamples = 1\nvalue = [0, 0, 0, 1]\nclass = 3", fillcolor="#d739e5ff"] ;
510 -> 511 ;
512 [label="gini = 0.0\nsamples = 10\nvalue = [0, 0, 10, 0]\nclass = 2", fillcolor="#399de5ff"] ;
510 -> 512 ;
513 [label="killed_from <= 8335.293\ngini = 0.165\nsamples = 22\nvalue = [0, 0, 20, 2]\nclass = 2", fillcolor="#399de5e6"] ;
501 -> 513 ;
514 [label="kill_count <= 4.5\ngini = 0.091\nsamples = 21\nvalue = [0, 0, 20, 1]\nclass = 2", fillcolor="#399de5f2"] ;
513 -> 514 ;
515 [label="gini = 0.0\nsamples = 19\nvalue = [0, 0, 19, 0]\nclass = 2", fillcolor="#399de5ff"] ;
514 -> 515 ;
516 [label="distance_rode <= 137.796\ngini = 0.5\nsamples = 2\nvalue = [0, 0, 1, 1]\nclass = 2", fillcolor="#399de500"] ;
514 -> 516 ;
517 [label="gini = 0.0\nsamples = 1\nvalue = [0, 0, 1, 0]\nclass = 2", fillcolor="#399de5ff"] ;
516 -> 517 ;
518 [label="gini = 0.0\nsamples = 1\nvalue = [0, 0, 0, 1]\nclass = 3", fillcolor="#d739e5ff"] ;
516 -> 518 ;
519 [label="gini = 0.0\nsamples = 1\nvalue = [0, 0, 0, 1]\nclass = 3", fillcolor="#d739e5ff"] ;
513 -> 519 ;
520 [label="team_placement <= 12.5\ngini = 0.159\nsamples = 46\nvalue = [0, 0, 42, 4]\nclass = 2", fillcolor="#399de5e7"] ;
500 -> 520 ;
521 [label="killed_from <= 17287.182\ngini = 0.49\nsamples = 7\nvalue = [0, 0, 4, 3]\nclass = 2", fillcolor="#399de540"] ;
520 -> 521 ;
522 [label="gini = 0.0\nsamples = 3\nvalue = [0, 0, 0, 3]\nclass = 3", fillcolor="#d739e5ff"] ;
521 -> 522 ;
523 [label="gini = 0.0\nsamples = 4\nvalue = [0, 0, 4, 0]\nclass = 2", fillcolor="#399de5ff"] ;
521 -> 523 ;
524 [label="kill_distance <= 16296.129\ngini = 0.05\nsamples = 39\nvalue = [0, 0, 38, 1]\nclass = 2", fillcolor="#399de5f8"] ;
520 -> 524 ;
525 [label="gini = 0.0\nsamples = 37\nvalue = [0, 0, 37, 0]\nclass = 2", fillcolor="#399de5ff"] ;
524 -> 525 ;
526 [label="player_dmg <= 243.5\ngini = 0.5\nsamples = 2\nvalue = [0, 0, 1, 1]\nclass = 2", fillcolor="#399de500"] ;
524 -> 526 ;
527 [label="gini = 0.0\nsamples = 1\nvalue = [0, 0, 0, 1]\nclass = 3", fillcolor="#d739e5ff"] ;
526 -> 527 ;
528 [label="gini = 0.0\nsamples = 1\nvalue = [0, 0, 1, 0]\nclass = 2", fillcolor="#399de5ff"] ;
526 -> 528 ;
529 [label="team_placement <= 13.5\ngini = 0.42\nsamples = 10\nvalue = [0, 0, 7, 3]\nclass = 2", fillcolor="#399de592"] ;
499 -> 529 ;
530 [label="gini = 0.0\nsamples = 3\nvalue = [0, 0, 0, 3]\nclass = 3", fillcolor="#d739e5ff"] ;
529 -> 530 ;
531 [label="gini = 0.0\nsamples = 7\nvalue = [0, 0, 7, 0]\nclass = 2", fillcolor="#399de5ff"] ;
529 -> 531 ;
532 [label="gini = 0.0\nsamples = 1\nvalue = [0, 0, 0, 1]\nclass = 3", fillcolor="#d739e5ff"] ;
498 -> 532 ;
533 [label="gini = 0.0\nsamples = 2\nvalue = [0, 0, 0, 2]\nclass = 3", fillcolor="#d739e5ff"] ;
497 -> 533 ;
534 [label="team_placement <= 13.5\ngini = 0.449\nsamples = 103\nvalue = [0, 0, 68, 35]\nclass = 2", fillcolor="#399de57c"] ;
374 -> 534 ;
535 [label="survive_time <= 882.958\ngini = 0.418\nsamples = 37\nvalue = [0, 0, 11, 26]\nclass = 3", fillcolor="#d739e593"] ;
534 -> 535 ;
536 [label="distance_rode <= 4.661\ngini = 0.426\nsamples = 13\nvalue = [0, 0, 9, 4]\nclass = 2", fillcolor="#399de58e"] ;
535 -> 536 ;
537 [label="gini = 0.0\nsamples = 7\nvalue = [0, 0, 7, 0]\nclass = 2", fillcolor="#399de5ff"] ;
536 -> 537 ;
538 [label="survive_time <= 788.476\ngini = 0.444\nsamples = 6\nvalue = [0, 0, 2, 4]\nclass = 3", fillcolor="#d739e57f"] ;
536 -> 538 ;
539 [label="gini = 0.0\nsamples = 2\nvalue = [0, 0, 2, 0]\nclass = 2", fillcolor="#399de5ff"] ;
538 -> 539 ;
540 [label="gini = 0.0\nsamples = 4\nvalue = [0, 0, 0, 4]\nclass = 3", fillcolor="#d739e5ff"] ;
538 -> 540 ;
541 [label="kill_distance <= 226.723\ngini = 0.153\nsamples = 24\nvalue = [0, 0, 2, 22]\nclass = 3", fillcolor="#d739e5e8"] ;
535 -> 541 ;
542 [label="gini = 0.0\nsamples = 1\nvalue = [0, 0, 1, 0]\nclass = 2", fillcolor="#399de5ff"] ;
541 -> 542 ;
543 [label="player_dmg <= 94.5\ngini = 0.083\nsamples = 23\nvalue = [0, 0, 1, 22]\nclass = 3", fillcolor="#d739e5f3"] ;
541 -> 543 ;
544 [label="survive_time <= 904.506\ngini = 0.375\nsamples = 4\nvalue = [0, 0, 1, 3]\nclass = 3", fillcolor="#d739e5aa"] ;
543 -> 544 ;
545 [label="gini = 0.0\nsamples = 3\nvalue = [0, 0, 0, 3]\nclass = 3", fillcolor="#d739e5ff"] ;
544 -> 545 ;
546 [label="gini = 0.0\nsamples = 1\nvalue = [0, 0, 1, 0]\nclass = 2", fillcolor="#399de5ff"] ;
544 -> 546 ;
547 [label="gini = 0.0\nsamples = 19\nvalue = [0, 0, 0, 19]\nclass = 3", fillcolor="#d739e5ff"] ;
543 -> 547 ;
548 [label="distance_walked <= 4386.548\ngini = 0.236\nsamples = 66\nvalue = [0, 0, 57, 9]\nclass = 2", fillcolor="#399de5d7"] ;
534 -> 548 ;
549 [label="Sniper Rifle <= 0.5\ngini = 0.1\nsamples = 57\nvalue = [0, 0, 54, 3]\nclass = 2", fillcolor="#399de5f1"] ;
548 -> 549 ;
550 [label="distance_walked <= 2693.702\ngini = 0.036\nsamples = 55\nvalue = [0, 0, 54, 1]\nclass = 2", fillcolor="#399de5fa"] ;
549 -> 550 ;
551 [label="gini = 0.0\nsamples = 1\nvalue = [0, 0, 0, 1]\nclass = 3", fillcolor="#d739e5ff"] ;
550 -> 551 ;
552 [label="gini = 0.0\nsamples = 54\nvalue = [0, 0, 54, 0]\nclass = 2", fillcolor="#399de5ff"] ;
550 -> 552 ;
553 [label="gini = 0.0\nsamples = 2\nvalue = [0, 0, 0, 2]\nclass = 3", fillcolor="#d739e5ff"] ;
549 -> 553 ;
554 [label="survive_time <= 770.573\ngini = 0.444\nsamples = 9\nvalue = [0, 0, 3, 6]\nclass = 3", fillcolor="#d739e57f"] ;
548 -> 554 ;
555 [label="gini = 0.0\nsamples = 3\nvalue = [0, 0, 3, 0]\nclass = 2", fillcolor="#399de5ff"] ;
554 -> 555 ;
556 [label="gini = 0.0\nsamples = 6\nvalue = [0, 0, 0, 6]\nclass = 3", fillcolor="#d739e5ff"] ;
554 -> 556 ;
557 [label="team_placement <= 12.5\ngini = 0.626\nsamples = 394\nvalue = [118, 0, 193, 83]\nclass = 2", fillcolor="#399de545"] ;
183 -> 557 ;
558 [label="travel_ratio <= 0.734\ngini = 0.592\nsamples = 135\nvalue = [47, 0, 18, 70]\nclass = 3", fillcolor="#d739e543"] ;
557 -> 558 ;
559 [label="team_placement <= 8.0\ngini = 0.5\nsamples = 66\nvalue = [42, 0, 4, 20]\nclass = 0", fillcolor="#e581397a"] ;
558 -> 559 ;
560 [label="distance_walked <= 1388.907\ngini = 0.291\nsamples = 17\nvalue = [3, 0, 0, 14]\nclass = 3", fillcolor="#d739e5c8"] ;
559 -> 560 ;
561 [label="gini = 0.0\nsamples = 2\nvalue = [2, 0, 0, 0]\nclass = 0", fillcolor="#e58139ff"] ;
560 -> 561 ;
562 [label="survive_time <= 485.361\ngini = 0.124\nsamples = 15\nvalue = [1, 0, 0, 14]\nclass = 3", fillcolor="#d739e5ed"] ;
560 -> 562 ;
563 [label="gini = 0.0\nsamples = 1\nvalue = [1, 0, 0, 0]\nclass = 0", fillcolor="#e58139ff"] ;
562 -> 563 ;
564 [label="gini = 0.0\nsamples = 14\nvalue = [0, 0, 0, 14]\nclass = 3", fillcolor="#d739e5ff"] ;
562 -> 564 ;
565 [label="kill_distance <= 16622.617\ngini = 0.345\nsamples = 49\nvalue = [39, 0, 4, 6]\nclass = 0", fillcolor="#e58139c4"] ;
559 -> 565 ;
566 [label="survive_time <= 692.049\ngini = 0.269\nsamples = 46\nvalue = [39, 0, 4, 3]\nclass = 0", fillcolor="#e58139d4"] ;
565 -> 566 ;
567 [label="killed_from <= 6345.624\ngini = 0.375\nsamples = 4\nvalue = [1, 0, 3, 0]\nclass = 2", fillcolor="#399de5aa"] ;
566 -> 567 ;
568 [label="gini = 0.0\nsamples = 3\nvalue = [0, 0, 3, 0]\nclass = 2", fillcolor="#399de5ff"] ;
567 -> 568 ;
569 [label="gini = 0.0\nsamples = 1\nvalue = [1, 0, 0, 0]\nclass = 0", fillcolor="#e58139ff"] ;
567 -> 569 ;
570 [label="player_dmg <= 426.5\ngini = 0.176\nsamples = 42\nvalue = [38, 0, 1, 3]\nclass = 0", fillcolor="#e58139e5"] ;
566 -> 570 ;
571 [label="distance_walked <= 3086.968\ngini = 0.099\nsamples = 39\nvalue = [37, 0, 1, 1]\nclass = 0", fillcolor="#e58139f2"] ;
570 -> 571 ;
572 [label="Shotgun <= 0.5\ngini = 0.051\nsamples = 38\nvalue = [37, 0, 1, 0]\nclass = 0", fillcolor="#e58139f8"] ;
571 -> 572 ;
573 [label="gini = 0.0\nsamples = 34\nvalue = [34, 0, 0, 0]\nclass = 0", fillcolor="#e58139ff"] ;
572 -> 573 ;
574 [label="survive_time <= 802.871\ngini = 0.375\nsamples = 4\nvalue = [3, 0, 1, 0]\nclass = 0", fillcolor="#e58139aa"] ;
572 -> 574 ;
575 [label="gini = 0.0\nsamples = 1\nvalue = [0, 0, 1, 0]\nclass = 2", fillcolor="#399de5ff"] ;
574 -> 575 ;
576 [label="gini = 0.0\nsamples = 3\nvalue = [3, 0, 0, 0]\nclass = 0", fillcolor="#e58139ff"] ;
574 -> 576 ;
577 [label="gini = 0.0\nsamples = 1\nvalue = [0, 0, 0, 1]\nclass = 3", fillcolor="#d739e5ff"] ;
571 -> 577 ;
578 [label="kill_distance <= 3179.933\ngini = 0.444\nsamples = 3\nvalue = [1, 0, 0, 2]\nclass = 3", fillcolor="#d739e57f"] ;
570 -> 578 ;
579 [label="gini = 0.0\nsamples = 2\nvalue = [0, 0, 0, 2]\nclass = 3", fillcolor="#d739e5ff"] ;
578 -> 579 ;
580 [label="gini = 0.0\nsamples = 1\nvalue = [1, 0, 0, 0]\nclass = 0", fillcolor="#e58139ff"] ;
578 -> 580 ;
581 [label="gini = 0.0\nsamples = 3\nvalue = [0, 0, 0, 3]\nclass = 3", fillcolor="#d739e5ff"] ;
565 -> 581 ;
582 [label="survive_time <= 860.609\ngini = 0.428\nsamples = 69\nvalue = [5, 0, 14, 50]\nclass = 3", fillcolor="#d739e5a7"] ;
558 -> 582 ;
583 [label="team_placement <= 9.5\ngini = 0.6\nsamples = 32\nvalue = [4, 0, 13, 15]\nclass = 3", fillcolor="#d739e51b"] ;
582 -> 583 ;
584 [label="distance_walked <= 1384.151\ngini = 0.142\nsamples = 13\nvalue = [1, 0, 0, 12]\nclass = 3", fillcolor="#d739e5ea"] ;
583 -> 584 ;
585 [label="gini = 0.0\nsamples = 1\nvalue = [1, 0, 0, 0]\nclass = 0", fillcolor="#e58139ff"] ;
584 -> 585 ;
586 [label="gini = 0.0\nsamples = 12\nvalue = [0, 0, 0, 12]\nclass = 3", fillcolor="#d739e5ff"] ;
584 -> 586 ;
587 [label="travel_ratio <= 0.745\ngini = 0.482\nsamples = 19\nvalue = [3, 0, 13, 3]\nclass = 2", fillcolor="#399de59f"] ;
583 -> 587 ;
588 [label="gini = 0.0\nsamples = 2\nvalue = [2, 0, 0, 0]\nclass = 0", fillcolor="#e58139ff"] ;
587 -> 588 ;
589 [label="distance_rode <= 589.84\ngini = 0.381\nsamples = 17\nvalue = [1, 0, 13, 3]\nclass = 2", fillcolor="#399de5b6"] ;
587 -> 589 ;
590 [label="gini = 0.0\nsamples = 10\nvalue = [0, 0, 10, 0]\nclass = 2", fillcolor="#399de5ff"] ;
589 -> 590 ;
591 [label="survive_time <= 803.584\ngini = 0.612\nsamples = 7\nvalue = [1, 0, 3, 3]\nclass = 2", fillcolor="#399de500"] ;
589 -> 591 ;
592 [label="Carbine <= 0.5\ngini = 0.375\nsamples = 4\nvalue = [1, 0, 3, 0]\nclass = 2", fillcolor="#399de5aa"] ;
591 -> 592 ;
593 [label="gini = 0.0\nsamples = 3\nvalue = [0, 0, 3, 0]\nclass = 2", fillcolor="#399de5ff"] ;
592 -> 593 ;
594 [label="gini = 0.0\nsamples = 1\nvalue = [1, 0, 0, 0]\nclass = 0", fillcolor="#e58139ff"] ;
592 -> 594 ;
595 [label="gini = 0.0\nsamples = 3\nvalue = [0, 0, 0, 3]\nclass = 3", fillcolor="#d739e5ff"] ;
591 -> 595 ;
596 [label="Pistols and Sidearm <= 0.5\ngini = 0.104\nsamples = 37\nvalue = [1, 0, 1, 35]\nclass = 3", fillcolor="#d739e5f1"] ;
582 -> 596 ;
597 [label="distance_rode <= 498.504\ngini = 0.054\nsamples = 36\nvalue = [0, 0, 1, 35]\nclass = 3", fillcolor="#d739e5f8"] ;
596 -> 597 ;
598 [label="distance_rode <= 494.652\ngini = 0.32\nsamples = 5\nvalue = [0, 0, 1, 4]\nclass = 3", fillcolor="#d739e5bf"] ;
597 -> 598 ;
599 [label="gini = 0.0\nsamples = 4\nvalue = [0, 0, 0, 4]\nclass = 3", fillcolor="#d739e5ff"] ;
598 -> 599 ;
600 [label="gini = 0.0\nsamples = 1\nvalue = [0, 0, 1, 0]\nclass = 2", fillcolor="#399de5ff"] ;
598 -> 600 ;
601 [label="gini = 0.0\nsamples = 31\nvalue = [0, 0, 0, 31]\nclass = 3", fillcolor="#d739e5ff"] ;
597 -> 601 ;
602 [label="gini = 0.0\nsamples = 1\nvalue = [1, 0, 0, 0]\nclass = 0", fillcolor="#e58139ff"] ;
596 -> 602 ;
603 [label="survive_time <= 804.836\ngini = 0.466\nsamples = 259\nvalue = [71, 0, 175, 13]\nclass = 2", fillcolor="#399de58d"] ;
557 -> 603 ;
604 [label="killed_from <= 17205.758\ngini = 0.21\nsamples = 126\nvalue = [15, 0, 111, 0]\nclass = 2", fillcolor="#399de5dd"] ;
603 -> 604 ;
605 [label="team_placement <= 13.5\ngini = 0.153\nsamples = 120\nvalue = [10, 0, 110, 0]\nclass = 2", fillcolor="#399de5e8"] ;
604 -> 605 ;
606 [label="player_assists <= 0.5\ngini = 0.459\nsamples = 14\nvalue = [5, 0, 9, 0]\nclass = 2", fillcolor="#399de571"] ;
605 -> 606 ;
607 [label="distance_rode <= 651.914\ngini = 0.298\nsamples = 11\nvalue = [2, 0, 9, 0]\nclass = 2", fillcolor="#399de5c6"] ;
606 -> 607 ;
608 [label="gini = 0.0\nsamples = 8\nvalue = [0, 0, 8, 0]\nclass = 2", fillcolor="#399de5ff"] ;
607 -> 608 ;
609 [label="travel_ratio <= 0.761\ngini = 0.444\nsamples = 3\nvalue = [2, 0, 1, 0]\nclass = 0", fillcolor="#e581397f"] ;
607 -> 609 ;
610 [label="gini = 0.0\nsamples = 2\nvalue = [2, 0, 0, 0]\nclass = 0", fillcolor="#e58139ff"] ;
609 -> 610 ;
611 [label="gini = 0.0\nsamples = 1\nvalue = [0, 0, 1, 0]\nclass = 2", fillcolor="#399de5ff"] ;
609 -> 611 ;
612 [label="gini = 0.0\nsamples = 3\nvalue = [3, 0, 0, 0]\nclass = 0", fillcolor="#e58139ff"] ;
606 -> 612 ;
613 [label="kill_distance <= 14559.58\ngini = 0.09\nsamples = 106\nvalue = [5, 0, 101, 0]\nclass = 2", fillcolor="#399de5f2"] ;
605 -> 613 ;
614 [label="distance_rode <= 786.154\ngini = 0.073\nsamples = 105\nvalue = [4, 0, 101, 0]\nclass = 2", fillcolor="#399de5f5"] ;
613 -> 614 ;
615 [label="travel_ratio <= 0.694\ngini = 0.022\nsamples = 90\nvalue = [1, 0, 89, 0]\nclass = 2", fillcolor="#399de5fc"] ;
614 -> 615 ;
616 [label="travel_ratio <= 0.694\ngini = 0.165\nsamples = 11\nvalue = [1, 0, 10, 0]\nclass = 2", fillcolor="#399de5e6"] ;
615 -> 616 ;
617 [label="gini = 0.0\nsamples = 10\nvalue = [0, 0, 10, 0]\nclass = 2", fillcolor="#399de5ff"] ;
616 -> 617 ;
618 [label="gini = 0.0\nsamples = 1\nvalue = [1, 0, 0, 0]\nclass = 0", fillcolor="#e58139ff"] ;
616 -> 618 ;
619 [label="gini = 0.0\nsamples = 79\nvalue = [0, 0, 79, 0]\nclass = 2", fillcolor="#399de5ff"] ;
615 -> 619 ;
620 [label="distance_walked <= 1987.53\ngini = 0.32\nsamples = 15\nvalue = [3, 0, 12, 0]\nclass = 2", fillcolor="#399de5bf"] ;
614 -> 620 ;
621 [label="gini = 0.0\nsamples = 2\nvalue = [2, 0, 0, 0]\nclass = 0", fillcolor="#e58139ff"] ;
620 -> 621 ;
622 [label="survive_time <= 799.198\ngini = 0.142\nsamples = 13\nvalue = [1, 0, 12, 0]\nclass = 2", fillcolor="#399de5ea"] ;
620 -> 622 ;
623 [label="gini = 0.0\nsamples = 12\nvalue = [0, 0, 12, 0]\nclass = 2", fillcolor="#399de5ff"] ;
622 -> 623 ;
624 [label="gini = 0.0\nsamples = 1\nvalue = [1, 0, 0, 0]\nclass = 0", fillcolor="#e58139ff"] ;
622 -> 624 ;
625 [label="gini = 0.0\nsamples = 1\nvalue = [1, 0, 0, 0]\nclass = 0", fillcolor="#e58139ff"] ;
613 -> 625 ;
626 [label="team_placement <= 18.5\ngini = 0.278\nsamples = 6\nvalue = [5, 0, 1, 0]\nclass = 0", fillcolor="#e58139cc"] ;
604 -> 626 ;
627 [label="gini = 0.0\nsamples = 5\nvalue = [5, 0, 0, 0]\nclass = 0", fillcolor="#e58139ff"] ;
626 -> 627 ;
628 [label="gini = 0.0\nsamples = 1\nvalue = [0, 0, 1, 0]\nclass = 2", fillcolor="#399de5ff"] ;
626 -> 628 ;
629 [label="travel_ratio <= 0.739\ngini = 0.582\nsamples = 133\nvalue = [56, 0, 64, 13]\nclass = 2", fillcolor="#399de51a"] ;
603 -> 629 ;
630 [label="team_placement <= 17.5\ngini = 0.391\nsamples = 75\nvalue = [55, 0, 20, 0]\nclass = 0", fillcolor="#e58139a2"] ;
629 -> 630 ;
631 [label="distance_rode <= 663.165\ngini = 0.309\nsamples = 68\nvalue = [55, 0, 13, 0]\nclass = 0", fillcolor="#e58139c3"] ;
630 -> 631 ;
632 [label="travel_ratio <= 0.705\ngini = 0.471\nsamples = 29\nvalue = [18, 0, 11, 0]\nclass = 0", fillcolor="#e5813963"] ;
631 -> 632 ;
633 [label="gini = 0.0\nsamples = 8\nvalue = [8, 0, 0, 0]\nclass = 0", fillcolor="#e58139ff"] ;
632 -> 633 ;
634 [label="killed_from <= 5243.916\ngini = 0.499\nsamples = 21\nvalue = [10, 0, 11, 0]\nclass = 2", fillcolor="#399de517"] ;
632 -> 634 ;
635 [label="team_placement <= 14.5\ngini = 0.408\nsamples = 14\nvalue = [4, 0, 10, 0]\nclass = 2", fillcolor="#399de599"] ;
634 -> 635 ;
636 [label="kill_knockdown_ratio <= 0.45\ngini = 0.444\nsamples = 6\nvalue = [4, 0, 2, 0]\nclass = 0", fillcolor="#e581397f"] ;
635 -> 636 ;
637 [label="gini = 0.0\nsamples = 2\nvalue = [0, 0, 2, 0]\nclass = 2", fillcolor="#399de5ff"] ;
636 -> 637 ;
638 [label="gini = 0.0\nsamples = 4\nvalue = [4, 0, 0, 0]\nclass = 0", fillcolor="#e58139ff"] ;
636 -> 638 ;
639 [label="gini = 0.0\nsamples = 8\nvalue = [0, 0, 8, 0]\nclass = 2", fillcolor="#399de5ff"] ;
635 -> 639 ;
640 [label="travel_ratio <= 0.734\ngini = 0.245\nsamples = 7\nvalue = [6, 0, 1, 0]\nclass = 0", fillcolor="#e58139d4"] ;
634 -> 640 ;
641 [label="gini = 0.0\nsamples = 6\nvalue = [6, 0, 0, 0]\nclass = 0", fillcolor="#e58139ff"] ;
640 -> 641 ;
642 [label="gini = 0.0\nsamples = 1\nvalue = [0, 0, 1, 0]\nclass = 2", fillcolor="#399de5ff"] ;
640 -> 642 ;
643 [label="team_placement <= 16.5\ngini = 0.097\nsamples = 39\nvalue = [37, 0, 2, 0]\nclass = 0", fillcolor="#e58139f1"] ;
631 -> 643 ;
644 [label="gini = 0.0\nsamples = 31\nvalue = [31, 0, 0, 0]\nclass = 0", fillcolor="#e58139ff"] ;
643 -> 644 ;
645 [label="distance_rode <= 805.016\ngini = 0.375\nsamples = 8\nvalue = [6, 0, 2, 0]\nclass = 0", fillcolor="#e58139aa"] ;
643 -> 645 ;
646 [label="gini = 0.0\nsamples = 2\nvalue = [0, 0, 2, 0]\nclass = 2", fillcolor="#399de5ff"] ;
645 -> 646 ;
647 [label="gini = 0.0\nsamples = 6\nvalue = [6, 0, 0, 0]\nclass = 0", fillcolor="#e58139ff"] ;
645 -> 647 ;
648 [label="gini = 0.0\nsamples = 7\nvalue = [0, 0, 7, 0]\nclass = 2", fillcolor="#399de5ff"] ;
630 -> 648 ;
649 [label="distance_walked <= 2697.369\ngini = 0.374\nsamples = 58\nvalue = [1, 0, 44, 13]\nclass = 2", fillcolor="#399de5b0"] ;
629 -> 649 ;
650 [label="player_dmg <= 632.0\ngini = 0.219\nsamples = 48\nvalue = [0, 0, 42, 6]\nclass = 2", fillcolor="#399de5db"] ;
649 -> 650 ;
651 [label="kill_distance <= 11316.332\ngini = 0.124\nsamples = 45\nvalue = [0, 0, 42, 3]\nclass = 2", fillcolor="#399de5ed"] ;
650 -> 651 ;
652 [label="distance_rode <= 478.908\ngini = 0.045\nsamples = 43\nvalue = [0, 0, 42, 1]\nclass = 2", fillcolor="#399de5f9"] ;
651 -> 652 ;
653 [label="gini = 0.0\nsamples = 1\nvalue = [0, 0, 0, 1]\nclass = 3", fillcolor="#d739e5ff"] ;
652 -> 653 ;
654 [label="gini = 0.0\nsamples = 42\nvalue = [0, 0, 42, 0]\nclass = 2", fillcolor="#399de5ff"] ;
652 -> 654 ;
655 [label="gini = 0.0\nsamples = 2\nvalue = [0, 0, 0, 2]\nclass = 3", fillcolor="#d739e5ff"] ;
651 -> 655 ;
656 [label="gini = 0.0\nsamples = 3\nvalue = [0, 0, 0, 3]\nclass = 3", fillcolor="#d739e5ff"] ;
650 -> 656 ;
657 [label="killed_from <= 1823.28\ngini = 0.46\nsamples = 10\nvalue = [1, 0, 2, 7]\nclass = 3", fillcolor="#d739e59f"] ;
649 -> 657 ;
658 [label="killed_from <= 956.683\ngini = 0.5\nsamples = 2\nvalue = [1, 0, 1, 0]\nclass = 0", fillcolor="#e5813900"] ;
657 -> 658 ;
659 [label="gini = 0.0\nsamples = 1\nvalue = [1, 0, 0, 0]\nclass = 0", fillcolor="#e58139ff"] ;
658 -> 659 ;
660 [label="gini = 0.0\nsamples = 1\nvalue = [0, 0, 1, 0]\nclass = 2", fillcolor="#399de5ff"] ;
658 -> 660 ;
661 [label="Vehicle <= 0.5\ngini = 0.219\nsamples = 8\nvalue = [0, 0, 1, 7]\nclass = 3", fillcolor="#d739e5db"] ;
657 -> 661 ;
662 [label="gini = 0.0\nsamples = 7\nvalue = [0, 0, 0, 7]\nclass = 3", fillcolor="#d739e5ff"] ;
661 -> 662 ;
663 [label="gini = 0.0\nsamples = 1\nvalue = [0, 0, 1, 0]\nclass = 2", fillcolor="#399de5ff"] ;
661 -> 663 ;
664 [label="travel_ratio <= 0.612\ngini = 0.636\nsamples = 58558\nvalue = [9709, 26905, 1240, 20704]\nclass = 1", fillcolor="#47e5392a"] ;
0 -> 664 [labeldistance=2.5, labelangle=-45, headlabel="False"] ;
665 [label="survive_time <= 1357.098\ngini = 0.396\nsamples = 35966\nvalue = [9071, 26439, 0, 456]\nclass = 1", fillcolor="#47e539a5"] ;
664 -> 665 ;
666 [label="team_placement <= 8.5\ngini = 0.297\nsamples = 10050\nvalue = [8257, 1685, 0, 108]\nclass = 0", fillcolor="#e58139c8"] ;
665 -> 666 ;
667 [label="survive_time <= 1238.146\ngini = 0.527\nsamples = 2693\nvalue = [1302, 1316, 0, 75]\nclass = 1", fillcolor="#47e53903"] ;
666 -> 667 ;
668 [label="team_placement <= 5.5\ngini = 0.403\nsamples = 1347\nvalue = [985, 335, 0, 27]\nclass = 0", fillcolor="#e58139a4"] ;
667 -> 668 ;
669 [label="survive_time <= 1112.719\ngini = 0.531\nsamples = 498\nvalue = [252, 229, 0, 17]\nclass = 0", fillcolor="#e5813916"] ;
668 -> 669 ;
670 [label="kill_distance <= 7254.875\ngini = 0.37\nsamples = 256\nvalue = [196, 53, 0, 7]\nclass = 0", fillcolor="#e58139b4"] ;
669 -> 670 ;
671 [label="kill_count <= 3.5\ngini = 0.268\nsamples = 212\nvalue = [179, 29, 0, 4]\nclass = 0", fillcolor="#e58139d1"] ;
670 -> 671 ;
672 [label="knockdown_count <= 0.5\ngini = 0.196\nsamples = 194\nvalue = [173, 18, 0, 3]\nclass = 0", fillcolor="#e58139e1"] ;
671 -> 672 ;
673 [label="distance_walked <= 1824.604\ngini = 0.5\nsamples = 12\nvalue = [6, 6, 0, 0]\nclass = 0", fillcolor="#e5813900"] ;
672 -> 673 ;
674 [label="killed_from <= 1980.661\ngini = 0.375\nsamples = 8\nvalue = [6, 2, 0, 0]\nclass = 0", fillcolor="#e58139aa"] ;
673 -> 674 ;
675 [label="gini = 0.0\nsamples = 2\nvalue = [0, 2, 0, 0]\nclass = 1", fillcolor="#47e539ff"] ;
674 -> 675 ;
676 [label="gini = 0.0\nsamples = 6\nvalue = [6, 0, 0, 0]\nclass = 0", fillcolor="#e58139ff"] ;
674 -> 676 ;
677 [label="gini = 0.0\nsamples = 4\nvalue = [0, 4, 0, 0]\nclass = 1", fillcolor="#47e539ff"] ;
673 -> 677 ;
678 [label="travel_ratio <= 0.608\ngini = 0.153\nsamples = 182\nvalue = [167, 12, 0, 3]\nclass = 0", fillcolor="#e58139e8"] ;
672 -> 678 ;
679 [label="distance_rode <= 5547.281\ngini = 0.135\nsamples = 180\nvalue = [167, 12, 0, 1]\nclass = 0", fillcolor="#e58139eb"] ;
678 -> 679 ;
680 [label="team_placement <= 2.5\ngini = 0.092\nsamples = 167\nvalue = [159, 7, 0, 1]\nclass = 0", fillcolor="#e58139f2"] ;
679 -> 680 ;
681 [label="kill_count <= 1.5\ngini = 0.304\nsamples = 28\nvalue = [23, 4, 0, 1]\nclass = 0", fillcolor="#e58139ca"] ;
680 -> 681 ;
682 [label="gini = 0.0\nsamples = 16\nvalue = [16, 0, 0, 0]\nclass = 0", fillcolor="#e58139ff"] ;
681 -> 682 ;
683 [label="kill_distance <= 782.681\ngini = 0.542\nsamples = 12\nvalue = [7, 4, 0, 1]\nclass = 0", fillcolor="#e5813960"] ;
681 -> 683 ;
684 [label="gini = 0.0\nsamples = 5\nvalue = [5, 0, 0, 0]\nclass = 0", fillcolor="#e58139ff"] ;
683 -> 684 ;
685 [label="player_dmg <= 198.0\ngini = 0.571\nsamples = 7\nvalue = [2, 4, 0, 1]\nclass = 1", fillcolor="#47e53966"] ;
683 -> 685 ;
686 [label="gini = 0.0\nsamples = 4\nvalue = [0, 4, 0, 0]\nclass = 1", fillcolor="#47e539ff"] ;
685 -> 686 ;
687 [label="killed_from <= 544.973\ngini = 0.444\nsamples = 3\nvalue = [2, 0, 0, 1]\nclass = 0", fillcolor="#e581397f"] ;
685 -> 687 ;
688 [label="gini = 0.0\nsamples = 1\nvalue = [0, 0, 0, 1]\nclass = 3", fillcolor="#d739e5ff"] ;
687 -> 688 ;
689 [label="gini = 0.0\nsamples = 2\nvalue = [2, 0, 0, 0]\nclass = 0", fillcolor="#e58139ff"] ;
687 -> 689 ;
690 [label="distance_walked <= 2152.262\ngini = 0.042\nsamples = 139\nvalue = [136, 3, 0, 0]\nclass = 0", fillcolor="#e58139f9"] ;
680 -> 690 ;
691 [label="gini = 0.0\nsamples = 125\nvalue = [125, 0, 0, 0]\nclass = 0", fillcolor="#e58139ff"] ;
690 -> 691 ;
692 [label="distance_rode <= 3818.475\ngini = 0.337\nsamples = 14\nvalue = [11, 3, 0, 0]\nclass = 0", fillcolor="#e58139b9"] ;
690 -> 692 ;
693 [label="killed_from <= 21207.533\ngini = 0.153\nsamples = 12\nvalue = [11, 1, 0, 0]\nclass = 0", fillcolor="#e58139e8"] ;
692 -> 693 ;
694 [label="gini = 0.0\nsamples = 11\nvalue = [11, 0, 0, 0]\nclass = 0", fillcolor="#e58139ff"] ;
693 -> 694 ;
695 [label="gini = 0.0\nsamples = 1\nvalue = [0, 1, 0, 0]\nclass = 1", fillcolor="#47e539ff"] ;
693 -> 695 ;
696 [label="gini = 0.0\nsamples = 2\nvalue = [0, 2, 0, 0]\nclass = 1", fillcolor="#47e539ff"] ;
692 -> 696 ;
697 [label="kill_distance <= 2197.608\ngini = 0.473\nsamples = 13\nvalue = [8, 5, 0, 0]\nclass = 0", fillcolor="#e5813960"] ;
679 -> 697 ;
698 [label="gini = 0.0\nsamples = 7\nvalue = [7, 0, 0, 0]\nclass = 0", fillcolor="#e58139ff"] ;
697 -> 698 ;
699 [label="Shotgun <= 0.5\ngini = 0.278\nsamples = 6\nvalue = [1, 5, 0, 0]\nclass = 1", fillcolor="#47e539cc"] ;
697 -> 699 ;
700 [label="gini = 0.0\nsamples = 5\nvalue = [0, 5, 0, 0]\nclass = 1", fillcolor="#47e539ff"] ;
699 -> 700 ;
701 [label="gini = 0.0\nsamples = 1\nvalue = [1, 0, 0, 0]\nclass = 0", fillcolor="#e58139ff"] ;
699 -> 701 ;
702 [label="gini = 0.0\nsamples = 2\nvalue = [0, 0, 0, 2]\nclass = 3", fillcolor="#d739e5ff"] ;
678 -> 702 ;
703 [label="distance_rode <= 2134.515\ngini = 0.512\nsamples = 18\nvalue = [6, 11, 0, 1]\nclass = 1", fillcolor="#47e5396a"] ;
671 -> 703 ;
704 [label="distance_walked <= 2426.663\ngini = 0.375\nsamples = 4\nvalue = [3, 0, 0, 1]\nclass = 0", fillcolor="#e58139aa"] ;
703 -> 704 ;
705 [label="gini = 0.0\nsamples = 3\nvalue = [3, 0, 0, 0]\nclass = 0", fillcolor="#e58139ff"] ;
704 -> 705 ;
706 [label="gini = 0.0\nsamples = 1\nvalue = [0, 0, 0, 1]\nclass = 3", fillcolor="#d739e5ff"] ;
704 -> 706 ;
707 [label="kill_distance <= 1775.703\ngini = 0.337\nsamples = 14\nvalue = [3, 11, 0, 0]\nclass = 1", fillcolor="#47e539b9"] ;
703 -> 707 ;
708 [label="survive_time <= 993.938\ngini = 0.5\nsamples = 6\nvalue = [3, 3, 0, 0]\nclass = 0", fillcolor="#e5813900"] ;
707 -> 708 ;
709 [label="gini = 0.0\nsamples = 2\nvalue = [2, 0, 0, 0]\nclass = 0", fillcolor="#e58139ff"] ;
708 -> 709 ;
710 [label="kill_count <= 6.5\ngini = 0.375\nsamples = 4\nvalue = [1, 3, 0, 0]\nclass = 1", fillcolor="#47e539aa"] ;
708 -> 710 ;
711 [label="gini = 0.0\nsamples = 3\nvalue = [0, 3, 0, 0]\nclass = 1", fillcolor="#47e539ff"] ;
710 -> 711 ;
712 [label="gini = 0.0\nsamples = 1\nvalue = [1, 0, 0, 0]\nclass = 0", fillcolor="#e58139ff"] ;
710 -> 712 ;
713 [label="gini = 0.0\nsamples = 8\nvalue = [0, 8, 0, 0]\nclass = 1", fillcolor="#47e539ff"] ;
707 -> 713 ;
714 [label="travel_ratio <= 0.567\ngini = 0.549\nsamples = 44\nvalue = [17, 24, 0, 3]\nclass = 1", fillcolor="#47e53942"] ;
670 -> 714 ;
715 [label="killed_from <= 5868.045\ngini = 0.485\nsamples = 41\nvalue = [17, 24, 0, 0]\nclass = 1", fillcolor="#47e5394a"] ;
714 -> 715 ;
716 [label="survive_time <= 1061.844\ngini = 0.476\nsamples = 23\nvalue = [14, 9, 0, 0]\nclass = 0", fillcolor="#e581395b"] ;
715 -> 716 ;
717 [label="player_dmg <= 447.5\ngini = 0.142\nsamples = 13\nvalue = [12, 1, 0, 0]\nclass = 0", fillcolor="#e58139ea"] ;
716 -> 717 ;
718 [label="gini = 0.0\nsamples = 12\nvalue = [12, 0, 0, 0]\nclass = 0", fillcolor="#e58139ff"] ;
717 -> 718 ;
719 [label="gini = 0.0\nsamples = 1\nvalue = [0, 1, 0, 0]\nclass = 1", fillcolor="#47e539ff"] ;
717 -> 719 ;
720 [label="Shotgun <= 0.5\ngini = 0.32\nsamples = 10\nvalue = [2, 8, 0, 0]\nclass = 1", fillcolor="#47e539bf"] ;
716 -> 720 ;
721 [label="killed_from <= 2250.99\ngini = 0.198\nsamples = 9\nvalue = [1, 8, 0, 0]\nclass = 1", fillcolor="#47e539df"] ;
720 -> 721 ;
722 [label="gini = 0.0\nsamples = 8\nvalue = [0, 8, 0, 0]\nclass = 1", fillcolor="#47e539ff"] ;
721 -> 722 ;
723 [label="gini = 0.0\nsamples = 1\nvalue = [1, 0, 0, 0]\nclass = 0", fillcolor="#e58139ff"] ;
721 -> 723 ;
724 [label="gini = 0.0\nsamples = 1\nvalue = [1, 0, 0, 0]\nclass = 0", fillcolor="#e58139ff"] ;
720 -> 724 ;
725 [label="distance_walked <= 935.86\ngini = 0.278\nsamples = 18\nvalue = [3, 15, 0, 0]\nclass = 1", fillcolor="#47e539cc"] ;
715 -> 725 ;
726 [label="gini = 0.0\nsamples = 1\nvalue = [1, 0, 0, 0]\nclass = 0", fillcolor="#e58139ff"] ;
725 -> 726 ;
727 [label="kill_distance <= 16556.842\ngini = 0.208\nsamples = 17\nvalue = [2, 15, 0, 0]\nclass = 1", fillcolor="#47e539dd"] ;
725 -> 727 ;
728 [label="killed_from <= 8756.779\ngini = 0.117\nsamples = 16\nvalue = [1, 15, 0, 0]\nclass = 1", fillcolor="#47e539ee"] ;
727 -> 728 ;
729 [label="team_placement <= 4.5\ngini = 0.444\nsamples = 3\nvalue = [1, 2, 0, 0]\nclass = 1", fillcolor="#47e5397f"] ;
728 -> 729 ;
730 [label="gini = 0.0\nsamples = 2\nvalue = [0, 2, 0, 0]\nclass = 1", fillcolor="#47e539ff"] ;
729 -> 730 ;
731 [label="gini = 0.0\nsamples = 1\nvalue = [1, 0, 0, 0]\nclass = 0", fillcolor="#e58139ff"] ;
729 -> 731 ;
732 [label="gini = 0.0\nsamples = 13\nvalue = [0, 13, 0, 0]\nclass = 1", fillcolor="#47e539ff"] ;
728 -> 732 ;
733 [label="gini = 0.0\nsamples = 1\nvalue = [1, 0, 0, 0]\nclass = 0", fillcolor="#e58139ff"] ;
727 -> 733 ;
734 [label="gini = 0.0\nsamples = 3\nvalue = [0, 0, 0, 3]\nclass = 3", fillcolor="#d739e5ff"] ;
714 -> 734 ;
735 [label="distance_rode <= 2628.115\ngini = 0.416\nsamples = 242\nvalue = [56, 176, 0, 10]\nclass = 1", fillcolor="#47e539a5"] ;
669 -> 735 ;
736 [label="player_dmg <= 216.5\ngini = 0.606\nsamples = 76\nvalue = [33, 33, 0, 10]\nclass = 0", fillcolor="#e5813900"] ;
735 -> 736 ;
737 [label="travel_ratio <= 0.587\ngini = 0.513\nsamples = 43\nvalue = [28, 9, 0, 6]\nclass = 0", fillcolor="#e581398e"] ;
736 -> 737 ;
738 [label="team_placement <= 2.5\ngini = 0.375\nsamples = 36\nvalue = [27, 9, 0, 0]\nclass = 0", fillcolor="#e58139aa"] ;
737 -> 738 ;
739 [label="travel_ratio <= 0.458\ngini = 0.42\nsamples = 10\nvalue = [3, 7, 0, 0]\nclass = 1", fillcolor="#47e53992"] ;
738 -> 739 ;
740 [label="survive_time <= 1143.292\ngini = 0.375\nsamples = 4\nvalue = [3, 1, 0, 0]\nclass = 0", fillcolor="#e58139aa"] ;
739 -> 740 ;
741 [label="gini = 0.0\nsamples = 1\nvalue = [0, 1, 0, 0]\nclass = 1", fillcolor="#47e539ff"] ;
740 -> 741 ;
742 [label="gini = 0.0\nsamples = 3\nvalue = [3, 0, 0, 0]\nclass = 0", fillcolor="#e58139ff"] ;
740 -> 742 ;
743 [label="gini = 0.0\nsamples = 6\nvalue = [0, 6, 0, 0]\nclass = 1", fillcolor="#47e539ff"] ;
739 -> 743 ;
744 [label="knockdown_count <= 0.5\ngini = 0.142\nsamples = 26\nvalue = [24, 2, 0, 0]\nclass = 0", fillcolor="#e58139ea"] ;
738 -> 744 ;
745 [label="gini = 0.0\nsamples = 1\nvalue = [0, 1, 0, 0]\nclass = 1", fillcolor="#47e539ff"] ;
744 -> 745 ;
746 [label="killed_from <= 29555.959\ngini = 0.077\nsamples = 25\nvalue = [24, 1, 0, 0]\nclass = 0", fillcolor="#e58139f4"] ;
744 -> 746 ;
747 [label="gini = 0.0\nsamples = 24\nvalue = [24, 0, 0, 0]\nclass = 0", fillcolor="#e58139ff"] ;
746 -> 747 ;
748 [label="gini = 0.0\nsamples = 1\nvalue = [0, 1, 0, 0]\nclass = 1", fillcolor="#47e539ff"] ;
746 -> 748 ;
749 [label="Vehicle <= 0.5\ngini = 0.245\nsamples = 7\nvalue = [1, 0, 0, 6]\nclass = 3", fillcolor="#d739e5d4"] ;
737 -> 749 ;
750 [label="gini = 0.0\nsamples = 6\nvalue = [0, 0, 0, 6]\nclass = 3", fillcolor="#d739e5ff"] ;
749 -> 750 ;
751 [label="gini = 0.0\nsamples = 1\nvalue = [1, 0, 0, 0]\nclass = 0", fillcolor="#e58139ff"] ;
749 -> 751 ;
752 [label="travel_ratio <= 0.389\ngini = 0.433\nsamples = 33\nvalue = [5, 24, 0, 4]\nclass = 1", fillcolor="#47e539ad"] ;
736 -> 752 ;
753 [label="gini = 0.0\nsamples = 3\nvalue = [3, 0, 0, 0]\nclass = 0", fillcolor="#e58139ff"] ;
752 -> 753 ;
754 [label="travel_ratio <= 0.573\ngini = 0.338\nsamples = 30\nvalue = [2, 24, 0, 4]\nclass = 1", fillcolor="#47e539c4"] ;
752 -> 754 ;
755 [label="kill_knockdown_ratio <= 0.367\ngini = 0.159\nsamples = 23\nvalue = [2, 21, 0, 0]\nclass = 1", fillcolor="#47e539e7"] ;
754 -> 755 ;
756 [label="gini = 0.0\nsamples = 1\nvalue = [1, 0, 0, 0]\nclass = 0", fillcolor="#e58139ff"] ;
755 -> 756 ;
757 [label="kill_distance <= 487.549\ngini = 0.087\nsamples = 22\nvalue = [1, 21, 0, 0]\nclass = 1", fillcolor="#47e539f3"] ;
755 -> 757 ;
758 [label="killed_from <= 1860.237\ngini = 0.5\nsamples = 2\nvalue = [1, 1, 0, 0]\nclass = 0", fillcolor="#e5813900"] ;
757 -> 758 ;
759 [label="gini = 0.0\nsamples = 1\nvalue = [1, 0, 0, 0]\nclass = 0", fillcolor="#e58139ff"] ;
758 -> 759 ;
760 [label="gini = 0.0\nsamples = 1\nvalue = [0, 1, 0, 0]\nclass = 1", fillcolor="#47e539ff"] ;
758 -> 760 ;
761 [label="gini = 0.0\nsamples = 20\nvalue = [0, 20, 0, 0]\nclass = 1", fillcolor="#47e539ff"] ;
757 -> 761 ;
762 [label="kill_count <= 4.5\ngini = 0.49\nsamples = 7\nvalue = [0, 3, 0, 4]\nclass = 3", fillcolor="#d739e540"] ;
754 -> 762 ;
763 [label="gini = 0.0\nsamples = 4\nvalue = [0, 0, 0, 4]\nclass = 3", fillcolor="#d739e5ff"] ;
762 -> 763 ;
764 [label="gini = 0.0\nsamples = 3\nvalue = [0, 3, 0, 0]\nclass = 1", fillcolor="#47e539ff"] ;
762 -> 764 ;
765 [label="kill_distance <= 1298.576\ngini = 0.239\nsamples = 166\nvalue = [23, 143, 0, 0]\nclass = 1", fillcolor="#47e539d6"] ;
735 -> 765 ;
766 [label="distance_walked <= 1981.629\ngini = 0.421\nsamples = 63\nvalue = [19, 44, 0, 0]\nclass = 1", fillcolor="#47e53991"] ;
765 -> 766 ;
767 [label="distance_rode <= 4299.362\ngini = 0.5\nsamples = 37\nvalue = [18, 19, 0, 0]\nclass = 1", fillcolor="#47e5390d"] ;
766 -> 767 ;
768 [label="team_placement <= 2.5\ngini = 0.466\nsamples = 27\nvalue = [17, 10, 0, 0]\nclass = 0", fillcolor="#e5813969"] ;
767 -> 768 ;
769 [label="gini = 0.0\nsamples = 4\nvalue = [0, 4, 0, 0]\nclass = 1", fillcolor="#47e539ff"] ;
768 -> 769 ;
770 [label="kill_count <= 2.5\ngini = 0.386\nsamples = 23\nvalue = [17, 6, 0, 0]\nclass = 0", fillcolor="#e58139a5"] ;
768 -> 770 ;
771 [label="kill_knockdown_ratio <= 0.833\ngini = 0.255\nsamples = 20\nvalue = [17, 3, 0, 0]\nclass = 0", fillcolor="#e58139d2"] ;
770 -> 771 ;
772 [label="distance_walked <= 1846.9\ngini = 0.188\nsamples = 19\nvalue = [17, 2, 0, 0]\nclass = 0", fillcolor="#e58139e1"] ;
771 -> 772 ;
773 [label="gini = 0.0\nsamples = 14\nvalue = [14, 0, 0, 0]\nclass = 0", fillcolor="#e58139ff"] ;
772 -> 773 ;
774 [label="distance_walked <= 1899.005\ngini = 0.48\nsamples = 5\nvalue = [3, 2, 0, 0]\nclass = 0", fillcolor="#e5813955"] ;
772 -> 774 ;
775 [label="gini = 0.0\nsamples = 2\nvalue = [0, 2, 0, 0]\nclass = 1", fillcolor="#47e539ff"] ;
774 -> 775 ;
776 [label="gini = 0.0\nsamples = 3\nvalue = [3, 0, 0, 0]\nclass = 0", fillcolor="#e58139ff"] ;
774 -> 776 ;
777 [label="gini = 0.0\nsamples = 1\nvalue = [0, 1, 0, 0]\nclass = 1", fillcolor="#47e539ff"] ;
771 -> 777 ;
778 [label="gini = 0.0\nsamples = 3\nvalue = [0, 3, 0, 0]\nclass = 1", fillcolor="#47e539ff"] ;
770 -> 778 ;
779 [label="travel_ratio <= 0.117\ngini = 0.18\nsamples = 10\nvalue = [1, 9, 0, 0]\nclass = 1", fillcolor="#47e539e3"] ;
767 -> 779 ;
780 [label="gini = 0.0\nsamples = 1\nvalue = [1, 0, 0, 0]\nclass = 0", fillcolor="#e58139ff"] ;
779 -> 780 ;
781 [label="gini = 0.0\nsamples = 9\nvalue = [0, 9, 0, 0]\nclass = 1", fillcolor="#47e539ff"] ;
779 -> 781 ;
782 [label="kill_distance <= 1266.897\ngini = 0.074\nsamples = 26\nvalue = [1, 25, 0, 0]\nclass = 1", fillcolor="#47e539f5"] ;
766 -> 782 ;
783 [label="gini = 0.0\nsamples = 25\nvalue = [0, 25, 0, 0]\nclass = 1", fillcolor="#47e539ff"] ;
782 -> 783 ;
784 [label="gini = 0.0\nsamples = 1\nvalue = [1, 0, 0, 0]\nclass = 0", fillcolor="#e58139ff"] ;
782 -> 784 ;
785 [label="Shotgun <= 0.5\ngini = 0.075\nsamples = 103\nvalue = [4, 99, 0, 0]\nclass = 1", fillcolor="#47e539f5"] ;
765 -> 785 ;
786 [label="player_dmg <= 83.5\ngini = 0.057\nsamples = 102\nvalue = [3, 99, 0, 0]\nclass = 1", fillcolor="#47e539f7"] ;
785 -> 786 ;
787 [label="distance_rode <= 3145.923\ngini = 0.208\nsamples = 17\nvalue = [2, 15, 0, 0]\nclass = 1", fillcolor="#47e539dd"] ;
786 -> 787 ;
788 [label="gini = 0.0\nsamples = 2\nvalue = [2, 0, 0, 0]\nclass = 0", fillcolor="#e58139ff"] ;
787 -> 788 ;
789 [label="gini = 0.0\nsamples = 15\nvalue = [0, 15, 0, 0]\nclass = 1", fillcolor="#47e539ff"] ;
787 -> 789 ;
790 [label="SMG <= 0.5\ngini = 0.023\nsamples = 85\nvalue = [1, 84, 0, 0]\nclass = 1", fillcolor="#47e539fc"] ;
786 -> 790 ;
791 [label="gini = 0.0\nsamples = 80\nvalue = [0, 80, 0, 0]\nclass = 1", fillcolor="#47e539ff"] ;
790 -> 791 ;
792 [label="distance_walked <= 1588.136\ngini = 0.32\nsamples = 5\nvalue = [1, 4, 0, 0]\nclass = 1", fillcolor="#47e539bf"] ;
790 -> 792 ;
793 [label="gini = 0.0\nsamples = 1\nvalue = [1, 0, 0, 0]\nclass = 0", fillcolor="#e58139ff"] ;
792 -> 793 ;
794 [label="gini = 0.0\nsamples = 4\nvalue = [0, 4, 0, 0]\nclass = 1", fillcolor="#47e539ff"] ;
792 -> 794 ;
795 [label="gini = 0.0\nsamples = 1\nvalue = [1, 0, 0, 0]\nclass = 0", fillcolor="#e58139ff"] ;
785 -> 795 ;
796 [label="survive_time <= 1167.104\ngini = 0.239\nsamples = 849\nvalue = [733, 106, 0, 10]\nclass = 0", fillcolor="#e58139d7"] ;
668 -> 796 ;
797 [label="kill_distance <= 27154.209\ngini = 0.095\nsamples = 560\nvalue = [532, 25, 0, 3]\nclass = 0", fillcolor="#e58139f2"] ;
796 -> 797 ;
798 [label="player_dmg <= 528.0\ngini = 0.083\nsamples = 555\nvalue = [531, 21, 0, 3]\nclass = 0", fillcolor="#e58139f4"] ;
797 -> 798 ;
799 [label="distance_walked <= 3911.649\ngini = 0.058\nsamples = 536\nvalue = [520, 13, 0, 3]\nclass = 0", fillcolor="#e58139f7"] ;
798 -> 799 ;
800 [label="distance_rode <= 6959.702\ngini = 0.051\nsamples = 534\nvalue = [520, 12, 0, 2]\nclass = 0", fillcolor="#e58139f8"] ;
799 -> 800 ;
801 [label="kill_distance <= 12263.172\ngini = 0.038\nsamples = 521\nvalue = [511, 8, 0, 2]\nclass = 0", fillcolor="#e58139fa"] ;
800 -> 801 ;
802 [label="team_placement <= 6.5\ngini = 0.016\nsamples = 486\nvalue = [482, 3, 0, 1]\nclass = 0", fillcolor="#e58139fd"] ;
801 -> 802 ;
803 [label="Carbine <= 0.5\ngini = 0.068\nsamples = 114\nvalue = [110, 3, 0, 1]\nclass = 0", fillcolor="#e58139f6"] ;
802 -> 803 ;
804 [label="kill_count <= 4.5\ngini = 0.052\nsamples = 113\nvalue = [110, 2, 0, 1]\nclass = 0", fillcolor="#e58139f8"] ;
803 -> 804 ;
805 [label="killed_from <= 29219.617\ngini = 0.035\nsamples = 112\nvalue = [110, 1, 0, 1]\nclass = 0", fillcolor="#e58139fa"] ;
804 -> 805 ;
806 [label="Vehicle <= 0.5\ngini = 0.018\nsamples = 110\nvalue = [109, 1, 0, 0]\nclass = 0", fillcolor="#e58139fd"] ;
805 -> 806 ;
807 [label="gini = 0.0\nsamples = 106\nvalue = [106, 0, 0, 0]\nclass = 0", fillcolor="#e58139ff"] ;
806 -> 807 ;
